249564556	0.03942657	0.9918637
209895253	-0.5453626	0.75222072
250233077	-0.69358696	0.01566606
186201601	-0.12830258	-0.64950811
252578211	-0.02252444	-0.9852898
192557288	-0.64803046	-0.63899267
170589394	-0.88201478	-0.33352382
522426882	-0.78829745	0.58481573
170589324	-0.60253613	0.36130162
189721044	-0.51672318	-0.83110878
189723269	0.02468822	-0.09904618
250235277	-0.61284289	-0.43511326
186201332	0.82532119	-0.2608266
252912502	-0.7504804	-0.31881558
999999999	-0.12177202	-0.13656404
253692568	-0.02902967	-0.77967073
253645524	-0.04575153	-0.75974062
252588323	-0.72982854	0.67770025
170589432	0.15242829	0.69802932
248827120	-0.65864225	0.7439127
249672341	-0.65033914	-0.27873831
248811478	-0.56225094	-0.30442345
253541144	-0.79866245	0.58955101
190195222	0.81829839	-0.53844576
170589328	0.69334252	-0.21059373
252588990	-0.88375832	0.46197185
253136543	-0.88401728	0.46127361
253216503	0.00925602	-0.93424983
253227719	-0.25285857	-0.7548524
170589404	-0.12372173	-0.64155262
249564277	0.29136471	0.94040829
189723279	0.04421414	0.03573079
192621424	-0.17026856	0.66937506
261849765	-0.8129934	-0.50443497
253233752	-0.30182446	-0.91950746
484993924	-0.88184524	-0.44574958
190293643	-0.47727896	-0.86111202
253136491	-0.75513602	0.64674788
253034070	-0.72417959	0.65736516
249133402	-0.60226719	-0.30663941
253540331	0.86058962	-0.49345461
170589434	0.67066389	0.35221295
484993825	-0.85747584	-0.48793731
253652869	0.98446969	-0.12000104
186166915	0.50731342	-0.64606773
249523202	-0.65857333	0.74505081
249133390	0.15990558	-0.88863342
249133304	0.33090301	-0.76566344
209895088	0.02398351	0.23825406
253221326	0.95608601	0.26104947
235582681	0.92929056	0.20170285
235581437	0.86095269	-0.05349286
189610643	-0.57482857	-0.78595117
249563726	-0.86818812	0.22803947
170589326	0.09229958	0.29111217
192236399	-0.41530746	-0.37288369
254830661	-0.22510094	0.93315654
525179074	0.18275212	0.41845251
257936810	0.04504806	-0.99106205
249562777	0.64393382	-0.7523384
184961424	-0.01839426	-0.88536749
250235220	-0.17621084	-0.63356974
442065498	-0.79415565	0.27211421
189706460	-0.81877622	0.26528678
210628063	0.19802633	0.92113892
256341909	0.52696295	-0.8207636
249566462	-0.73727343	0.64759303
261481841	-0.3291484	-0.56336013
342949509	-0.60088444	0.38933333
253441248	0.79893476	0.45580984
253063700	-0.1181745	-0.8774916
189721244	-0.60890138	-0.35657046
249564334	-0.48522512	0.85648527
170589400	-0.48610837	0.71210458
253057837	0.83108034	0.52900393
189723281	0.68641843	0.42504679
253237367	-0.50576577	0.7655609
192558334	-0.09206684	-0.9898104
210639254	0.96556076	-0.14081754
249133437	0.96548277	-0.14567071
253652585	0.14025673	-0.97698992
248811474	0.132214	-0.95218226
189967535	-0.07267075	0.38412242
253692543	-0.01358997	-0.84530922
484993827	-0.8647493	-0.4722425
189720901	-0.86078033	-0.46424784
249564030	-0.09351013	0.4121508
253221995	-0.48042736	0.8710521
189720738	-0.41383909	0.8818605
249523195	-0.64430938	0.74326429
253238253	-0.58354463	-0.73297679
250231303	-0.90536315	-0.37576649
210628467	-0.8985877	-0.36144921
249133441	0.94141225	-0.32161125
257194090	0.94035212	-0.32148582
189721331	0.94477809	-0.04420715
253047022	0.41247102	0.85814733
249563529	-0.29905431	-0.94331518
248811471	-0.25320252	-0.56140166
253046944	-0.03636084	-0.02434542
253227777	-0.27622897	-0.9584788
249563497	-0.27688953	-0.95496859
252912377	0.58670524	-0.71383301
252588192	0.6473998	-0.75223752
257943873	-0.51521144	-0.77760778
189721067	-0.46353802	-0.81239928
253238243	-0.43789182	-0.30731113
253047121	-0.41726533	-0.3696931
442122620	-0.71065151	-0.6690314
249564489	-0.09555632	0.91596943
192554611	-0.44070974	-0.355566
253238029	0.9827787	-0.17343772
257549726	0.99068559	-0.07513379
190195204	0.98418161	-0.05194781
481937833	-0.85999353	-0.47093655
210639326	-0.11862795	-0.63345945
189721099	-0.13878468	-0.63739416
422050942	0.97105407	0.20665505
249523255	-0.78423066	0.60977331
249672364	-0.07387327	-0.982871
192558386	0.47769656	0.8640461
248827201	-0.57847291	0.79841365
192621418	0.25618887	-0.9524574
252912378	0.50722424	-0.67696598
210633419	0.43057497	0.88856579
252578665	0.23526705	-0.86878094
248811484	-0.65063759	-0.72332756
253697840	-0.04472189	-0.4749609
264728662	0.73796688	-0.66652832
189352139	0.71360503	-0.61726814
235648059	0.9001727	-0.23904517
235582523	0.94731196	0.09903785
189721083	-0.16242356	-0.62285251
253209487	-0.77774095	-0.33723514
256238782	0.21986981	-0.96627469
480816266	0.97787011	0.17098367
253221067	-0.40870478	0.49847285
422018669	0.56268047	0.73119366
253221061	-0.1197859	0.54733474
253226441	-0.11794859	0.52956044
253652646	-0.35461366	-0.74700288
248811485	-0.78469895	-0.4139368
209895096	-0.6407972	-0.73254484
170590661	-0.66536523	-0.64656979
210639494	0.54131954	-0.8081927
253540335	0.94645969	0.30601465
253237101	0.33390998	0.93862485
189720733	0.3159337	0.89665347
472536569	0.0066249	-0.42149433
190195287	0.29968078	0.84305842
170589336	0.31880355	0.76711931
481013841	0.54722752	0.46668559
195145811	-0.89573603	0.29427664
253047184	0.01883252	-0.37978194
190195263	0.50075249	-0.85334874
484998024	0.49786377	-0.85309138
422018574	-0.97736814	0.08401876
253033899	-0.02572656	0.99482011
257191429	0.89940774	-0.35307045
253221388	0.75007399	0.59073858
253221370	0.74476161	0.58861449
422018744	0.12789557	0.70127318
252578655	0.07663676	-0.93478926
248827177	-0.47035033	0.8680365
248827156	-0.41167826	0.8771904
249133449	0.38309724	-0.83646646
249133311	0.35276176	-0.77012498
248811473	0.33418805	-0.74986982
249133298	-0.39383457	-0.90782186
252588061	-0.79869102	0.46986562
170589402	-0.74702349	0.36894554
257938838	-0.73439549	-0.33737568
190195299	0.7905758	0.58161289
253697747	0.02696362	-0.32427817
253478662	-0.63855226	0.46005781
250235126	0.83633944	-0.47178135
249523328	-0.40421255	0.90211646
250235270	0.85382306	-0.50070161
170590715	0.84984187	-0.4983027
253041762	-0.27582956	-0.95787841
248833272	-0.25832671	-0.95204275
210639532	0.98005694	-0.17549872
252912504	-0.05082361	-0.9918044
253230677	-0.06313483	-0.97896472
258636810	0.0972979	-0.89191238
253045437	0.46607856	0.66703241
253045630	0.0028722	0.01751865
189967547	0.0318932	0.02095887
249133388	-0.13830881	-0.92491341
248811476	-0.11599142	-0.87213581
210628555	0.52363996	0.80814657
170589346	0.62325901	0.76383798
170589320	0.60199349	0.75450007
253697703	0.2474973	-0.9431318
210636295	0.2426308	-0.93310393
257945933	-0.75666635	0.58972213
253440659	0.13955873	0.72368575
250232252	-0.28561792	-0.88505912
253237950	-0.1427128	-0.97874644
248811472	-0.2123607	-0.9070462
253652866	0.98647754	-0.1141498
235581775	0.96482656	-0.14014174
442122599	-0.67655932	-0.70223331
250231243	-0.67626348	-0.70380418
249564581	-0.60160591	-0.74479486
189721073	0.01959269	-0.98442532
250235195	0.98654128	-0.00742838
186201335	0.84669427	-0.1233984
210628040	0.14772522	0.9720337
189721093	-0.76070229	-0.44434362
258353962	-0.75707306	-0.44235535
249464314	-0.40110595	0.80348844
189721117	-0.45714981	-0.85053236
249523278	-0.69348516	0.71123713
253057901	0.9966825	-0.03633255
250235207	0.98950709	-0.07303
425117950	-0.76688106	0.58519641
192621502	0.26195224	-0.92569896
264265807	0.88651281	-0.3093361
253042255	-0.12658581	0.9859679
495388058	-0.12922807	0.97927075
192553637	0.25746893	-0.95337793
186201439	0.24346516	-0.93127039
252736748	-0.89982234	0.41325104
253136500	-0.7551818	0.64673657
253225733	-0.32208619	0.93422989
170590665	-0.06052305	0.93546647
192551446	0.04014157	-0.41760601
250235247	0.58614445	0.79485361
184747503	-0.60318858	0.35697048
249563433	-0.91496311	-0.38598176
249563432	-0.91256599	-0.38409896
189723315	-0.93383524	0.29359153
209895158	0.30361331	-0.91743292
249523340	-0.36082867	0.92077672
249568320	-0.78560203	0.59921351
328826400	-0.49283508	-0.81511843
189721022	-0.49241008	-0.8185101
250235254	0.79045583	-0.3101476
190293642	0.79474977	-0.28254331
210628023	0.33268145	0.93621914
209895160	0.33235426	0.93671991
249523396	-0.43482244	0.88898146
253478573	-0.60106305	0.36308067
253057730	0.94003582	0.31772336
170590675	0.85644033	-0.02854084
190195346	0.76502247	-0.52576273
253046680	-0.19724514	0.7483156
192551439	-0.06373008	-0.43118251
210639535	0.97686743	-0.19770857
329186281	-0.5092128	0.67550864
253047133	-0.52240075	0.67517537
256238761	-0.18153555	-0.9707725
209895218	0.36809954	0.75144473
249564029	-0.08948338	0.39725278
261848619	-0.79865964	-0.57344403
189720903	-0.79616855	-0.57210475
253652849	0.92609293	-0.36666977
192621426	-0.62705117	-0.2801793
192558352	0.06698649	-0.99063135
170589342	0.6138048	-0.51698086
253063697	-0.10966293	-0.89316241
249672199	0.14273208	-0.87768681
209895092	-0.53972426	-0.78375437
209895173	0.09680743	0.87802866
189720725	0.09698824	0.87128561
253477602	0.10240508	0.87767804
249133375	-0.08368397	-0.89567487
184830431	-0.08286089	0.95015831
481937825	-0.83591881	-0.50084488
253057836	0.83061331	0.49774406
253697835	0.05288447	-0.37109089
422018625	0.70032696	0.50307314
191884384	-0.87411644	0.466092
210638730	-0.87835472	0.45330489
257346344	-0.17169854	-0.5775317
192554569	0.46627989	0.83808942
190195363	0.71081758	-0.21579912
186201337	0.69356239	-0.20132003
252578534	-0.05496431	-0.99125524
189721329	0.99545675	0.03500069
279598330	-0.88138321	-0.43770019
253040769	-0.62445353	0.77491809
253040744	-0.62408766	0.77410807
481937600	0.03890653	0.97505595
481937653	-0.93360839	-0.23738787
253034196	-0.22837284	-0.96843746
257947587	0.33205577	0.29669632
189721232	0.54094381	-0.77001187
170589398	0.6061212	0.77811649
249562794	0.63812608	-0.75903303
270700896	-0.9439209	-0.27001002
250233082	-0.37130631	-0.90614201
235582678	0.65328613	-0.74251108
190195201	0.83024595	0.13143487
258638281	-0.19401862	-0.97262011
481937750	-0.76180603	-0.59290989
253136548	-0.88526806	0.45993774
186201441	-0.59594475	0.60817704
249568291	-0.95258252	0.19130938
189720823	-0.74176028	0.41982837
481160989	0.24897026	0.90813664
253226781	0.1753193	0.95359838
253047152	0.06185621	0.52088264
189967543	-0.10009426	0.8444622
250231294	-0.90753953	-0.37727451
249564557	0.04796907	0.99151808
189967549	-0.45481555	0.59872378
253221333	-0.86578677	0.43653525
184953393	-0.79829548	0.42666196
257193713	0.98727201	-0.07656093
257942154	-0.21567456	0.95964755
189720862	-0.01611741	-0.18962406
250231300	-0.90736689	-0.37723269
257945222	-0.90215581	-0.37318825
189721065	-0.20587778	-0.96149101
360769451	-0.72245287	-0.6676908
253475951	-0.95496471	0.27772429
189723295	0.7313016	0.40910071
253213584	-0.22061391	-0.62689306
253047105	0.16138642	0.31830591
252591903	0.32813437	0.93900385
235581805	0.9276903	0.2638789
186204053	0.826609	0.12338478
210639271	0.9587914	0.07437283
186131996	-0.34224278	-0.56579915
170590685	-0.25922723	0.81090405
252912497	0.58908607	-0.79287228
253236200	-0.84017666	0.53396789
210634985	-0.83046719	0.52462728
425117947	0.80705482	0.50086386
261848822	-0.81444251	-0.56132476
253221176	0.17910703	0.08948588
253652870	0.96530287	-0.14548223
253230495	0.02777691	-0.98498134
249563616	0.23725416	-0.96390142
248811483	-0.57246448	-0.72129091
210636012	0.96683511	0.20917166
253046970	0.15038214	0.36884731
253540327	0.81394683	0.47159306
170590663	-0.43045526	-0.3357834
210636266	0.86181528	-0.49967873
253213763	0.85147094	-0.49958837
184830434	-0.59390106	0.51702399
191544508	-0.50669481	0.84644047
192559093	-0.96808032	0.09488506
253209486	-0.7532404	-0.29439717
249133406	-0.71491094	-0.33044658
250231356	-0.90074896	-0.36032472
253645174	0.58523222	-0.74514009
189720839	-0.76984282	0.56786318
189720768	-0.47713746	0.75456211
253221481	0.23396801	0.88792657
189352171	-0.96195553	-0.22217915
249563487	-0.27930229	-0.93602812
210634953	0.54321814	0.81425232
253209489	0.70529664	-0.68911844
253226433	0.38925949	0.86012378
252589196	-0.881758	0.45801226
253136511	-0.87943034	0.45274276
192557267	0.3850521	-0.66411433
253046995	-0.18622556	0.90630774
253046901	-0.3566208	-0.76998892
191884336	-0.56634075	-0.80972273
253236588	-0.83897911	0.53388072
252912499	-0.7202053	-0.34168287
392307278	0.89600465	0.2784969
190195196	0.87954179	0.29359165
249523518	-0.5072416	0.84623337
253697728	0.25815515	-0.95163303
253226427	0.25475457	-0.945988
522426737	0.95284482	0.21044553
261061485	-0.34872684	-0.56968654
323865011	-0.60357754	0.57655129
249568292	-0.76517767	0.43762534
250235269	-0.77078396	0.3806596
209895322	0.32904523	0.94186
189734194	0.30400787	0.94033085
263235899	-0.1080312	0.31427701
249133418	-0.40438117	-0.09817547
189967545	-0.13242085	0.31239116
190195315	-0.83149188	-0.54125205
253477935	-0.33215194	0.9346428
252912319	0.52741457	-0.81813883
360769449	-0.98952938	0.0218348
170589436	-0.77768635	-0.47384735
190195176	0.30036114	0.72584884
253057643	-0.9668335	0.19245028
189723287	-0.92266837	0.27188844
253692551	-0.04602331	-0.76303439
191544349	-0.0540925	0.03939685
250235132	0.8374814	-0.47591475
192626203	-0.59246707	-0.2802804
253219379	-0.25591132	-0.96095568
253692591	-0.89718813	-0.3622314
249566485	-0.45626189	0.88203844
192554606	0.0321394	0.13721657
189457065	0.46819901	0.87085352
189720740	-0.53877231	0.81959986
253233510	0.41139267	-0.87160249
249563629	0.47782907	0.86365725
249562796	0.63564634	-0.76175747
253441328	0.67958795	0.60090554
252588714	-0.51940755	0.79756949
253042685	-0.52191715	0.80148108
249564060	-0.00443128	0.91036582
258638284	-0.20466686	-0.9716475
253221669	0.32920885	0.1687795
252578210	-0.03595466	-0.99452913
249672340	-0.70030097	-0.3204886
484995573	0.98855697	-0.00888037
484995556	0.85004019	0.46358696
235581447	0.98187791	0.05819041
484996475	-0.18554458	-0.67873521
249672008	0.76490896	-0.53194277
210636294	-0.24387136	0.94580099
253221181	0.86155754	0.28118002
253442107	-0.62690985	0.62601381
249523738	-0.65258561	0.73532974
248827104	-0.65502613	0.71449931
189721281	0.6726622	-0.56436318
192554617	-0.44138472	-0.35291196
210636291	0.77291353	-0.52746231
249672362	-0.07297053	-0.98258018
253063699	0.52999624	-0.82341454
392307283	0.96239303	-0.25043018
253695418	0.65145831	-0.75319065
170589334	0.75391651	-0.15136819
258638283	-0.25051665	-0.94363692
522427374	-0.63520605	0.50790873
249523774	-0.80254521	-0.58618696
249523773	-0.80224946	-0.58529254
253692497	-0.40877413	-0.34970183
481937726	-0.81305779	-0.48888654
261850117	-0.39401657	0.91448755
249523292	-0.39398234	0.91032843
190195148	-0.96138862	0.17571996
249672009	0.9431961	-0.28498784
190195317	-0.76376823	-0.59319596
189720905	-0.73570939	-0.57414322
249133422	-0.09137253	0.98727747
189721277	-0.46103804	0.81649027
256238750	-0.32212711	-0.93363014
253063695	0.47505506	-0.84250507
249568295	-0.73405095	0.4165788
253139880	-0.147669	-0.89545692
195145815	-0.54724567	0.5186475
342949553	-0.36233101	0.91858288
249602327	0.04452769	0.07029169
189721042	0.56543337	-0.81403034
189720911	-0.82760211	-0.52283844
249133370	-0.19244778	-0.69668319
248811475	-0.19083538	-0.69569608
472536558	-0.39062298	0.49002286
253226772	0.1806923	0.96247378
189720727	0.17664456	0.9564913
253040763	-0.62428215	0.77485634
189720897	-0.62176595	0.77174501
418595834	-0.0765851	-0.03628978
253227213	-0.83996908	0.48297027
253134871	-0.3801814	-0.9078692
252588960	-0.97222154	0.09469434
257938841	-0.97112857	0.08992821
248827217	-0.5130169	0.83433944
253697773	-0.01801315	-0.37222943
253439079	0.15496538	0.7352181
250233085	-0.22220605	-0.93273958
253214086	0.31431379	-0.94392312
253645182	0.31356334	-0.94227284
210639530	0.98711323	-0.15060101
480982813	-0.26705514	-0.91559439
484996367	0.998124198	-0.000818500449
250235187	0.87599874	-0.07685961
250232660	-0.28592488	-0.93952008
250232399	-0.28059031	-0.93155999
253697811	-0.05901002	-0.40507432
189723289	0.71711194	0.37965103
210636267	0.85592219	-0.50408423
253206516	0.01398903	-0.9369925
192554608	0.03659997	0.20899387
249563641	0.14501391	0.97497142
253221904	0.74543418	0.64366314
253221365	-0.83031612	0.46404254
253046054	-0.4217105	0.26070923
252590702	-0.41984781	0.26515202
253439260	-0.05578861	0.81537493
249523395	-0.41235468	0.88564715
249568296	-0.74097242	0.4199278
392307277	0.73433102	0.65315122
425117869	-0.75599714	0.59573419
210636186	-0.76448155	0.58535234
259401334	0.00129998	-0.08239483
253441262	-0.00691399	-0.04215732
192554620	-0.4675113	-0.35227852
329186348	-0.55641456	0.69431521
252577970	0.11371182	-0.97079513
253034096	-0.7279457	0.67852281
192554618	-0.42937029	-0.33925063
253539053	-0.11229682	-0.90364498
253441165	0.85041881	-0.50610256
253645530	0.52884628	-0.79051642
250235353	0.98663171	-0.00660566
258636750	-0.3360094	-0.3333744
249564154	0.7551221	-0.6383511
249564171	0.75471134	-0.63834683
249523196	-0.68259242	0.71879203
249564430	-0.43829344	-0.89281553
250235130	0.83178005	-0.48344639
250235125	0.83748435	-0.4739297
253057944	0.73205516	0.64289934
253046383	-0.39695915	-0.90090043
249672043	0.68376699	-0.46400763
484995564	0.85995866	0.47359624
258353964	-0.75881931	-0.44019672
261848621	-0.57069943	-0.81414344
192559092	-0.95021778	0.03816542
189352157	-0.94323292	0.04614601
210639903	0.76528906	-0.63787258
210639894	0.75717311	-0.63822529
190302455	-0.18835748	0.8232752
210630255	0.35203063	0.73620847
189721135	0.02608463	-0.9909235
210634910	-0.9479776	0.26815335
253692498	-0.45635532	-0.34971139
249568321	-0.72721925	0.67839967
253058721	-0.44154906	0.74794067
253652865	0.98892373	-0.13473585
248811481	0.62181492	-0.32144284
342949545	-0.59888791	0.36224711
253237997	-0.16270099	-0.84019742
210638737	-0.24995367	-0.90859591
256354389	-0.07763385	-0.99248039
253688585	0.88914241	0.12386968
250235206	0.98784061	-0.01052911
256238765	-0.23419695	-0.9071907
253232727	-0.32501588	0.93946565
249564407	-0.67571344	-0.61952565
248827117	-0.77264035	0.62192678
189720848	-0.85311108	0.42458588
484993889	-0.86563669	-0.46311962
253238103	-0.33620175	-0.93145395
253233496	-0.40211791	0.80335633
249523343	-0.0740386	0.98926296
249523359	0.05002377	0.06511477
252592067	-0.81415906	0.5634564
253046743	-0.03177786	0.9501336
257191482	0.91725922	-0.37470728
235582518	0.89814082	-0.34752048
249564381	-0.15077976	0.40579872
249133398	0.01377272	-0.92657021
257778758	-0.90609709	-0.37563745
253230766	-0.07429723	-0.98180922
522426124	0.24716587	0.87921852
484995567	0.68411408	0.43092181
253696156	0.91517077	0.34050048
252578148	0.49422416	-0.65612523
192559030	-0.29793814	-0.94649379
253688993	-0.24153817	-0.73060412
253692556	0.06690914	-0.79920153
253214125	0.31421535	-0.94481808
253692466	0.5749768	0.80487808
170589340	0.58610682	0.79600772
210628550	-0.83901175	0.5319542
189720817	-0.83940625	0.53192016
250235240	0.74589548	-0.16477562
210639900	0.74809659	-0.6557147
210639890	0.75630484	-0.63791625
444988973	0.15219677	0.71919683
250235290	0.96853074	-0.0238075
253221182	-0.08139545	-0.38048121
252589969	-0.88349003	0.46190895
253045494	0.14453522	-0.97563894
484993854	-0.85905885	-0.45135004
209895167	-0.86648259	0.32466594
259401304	-0.76628885	-0.6106367
250230951	-0.91833922	-0.33774215
375109541	-0.94845282	-0.28804163
189126964	-0.94762665	-0.28846179
248827157	-0.37342713	0.9192656
253237100	0.33264028	0.93604235
522419848	-0.5471296	0.16230642
189967537	0.95858527	-0.18795361
192557258	0.11899964	-0.68174023
342949555	-0.16486804	0.96783094
249563654	0.09872857	0.63765306
210636286	-0.24159296	-0.61104871
253136530	-0.87848594	0.45782868
256239181	-0.51752359	0.67586049
256239116	0.26984306	0.581508
253237377	0.43542884	0.80424877
253134885	0.2382182	-0.93395551
253698449	0.2423557	-0.93072993
391028047	0.85745185	0.12562944
253056716	-0.18844119	-0.96403981
253221165	0.40747643	0.24888162
170590655	0.3296054	0.16505049
248827255	-0.57259618	0.81058907
253221317	0.99669474	0.0145413
186201345	0.50723757	-0.63525295
253045763	0.01869782	0.05548008
248811479	0.12536899	-0.85534678
253695468	-0.45292573	-0.36725634
210638322	-0.64949667	0.51445978
253539045	0.14932702	-0.97263578
250232578	-0.09357417	-0.99065044
250232503	-0.10046411	-0.98517375
481937671	-0.86375747	-0.48471056
253238263	-0.34030275	-0.93369639
170590653	0.31289686	0.77288768
192626513	-0.33867762	-0.93161339
235582643	0.49723754	-0.84709182
170590697	0.49400406	-0.84756114
249133431	0.91946386	-0.37486154
210630262	0.26804484	-0.93775083
209895154	-0.84297237	0.4844368
253225706	0.07393726	0.94722735
442122635	0.02833193	0.04600107
190195187	0.57241371	0.67234428
189721224	0.58070327	-0.80350761
189720868	-0.52373706	0.18646728
210633429	0.8770691	0.30192938
249563768	-0.77401623	0.25468889
253046771	0.401311	0.90115092
249564361	0.35165076	0.6391531
209895378	0.38544599	0.8764608
253688989	-0.27794057	-0.7163421
189721308	0.96576444	-0.1415597
488077416	0.75201396	-0.15190955
249564337	-0.27171319	0.92647963
235525019	-0.32030593	0.87338031
249523793	-0.55311893	0.82506834
190195173	-0.51089898	0.81784138
253046769	-0.06532824	0.99258385
186131994	-0.01831799	-0.39417427
189721333	-0.98972176	-0.05641416
189720844	-0.92425386	0.06682707
235582595	0.98679546	-0.00288563
210636188	0.54230813	0.46426312
189706472	-0.60154332	0.50803054
257346349	-0.27509971	-0.64633956
522419870	-0.24699046	0.88502402
253221325	0.85867998	-0.50221842
249568290	-0.7555851	0.39268256
257197100	-0.13481082	-0.9787611
189723309	0.75557443	0.64316634
256997370	-0.98081925	0.03578294
192626514	-0.33658915	-0.93096812
192626162	-0.3365703	-0.9312188
253688435	-0.1663704	-0.94507327
249564433	-0.35381236	-0.58061805
253221900	0.4116901	0.23790818
249523329	-0.42584233	0.89161163
253439097	0.11699228	0.71936371
253692550	-0.04352418	-0.75973187
192559101	0.07629092	0.97152193
253206593	-0.01743186	-0.95726692
257778543	-0.83210109	-0.49472599
253221157	0.43948184	0.86735374
257948104	-0.05687129	0.07429959
252578044	0.09621533	-0.86071764
252577924	-0.21098957	-0.67281553
235525017	-0.24974655	0.95688955
250235080	0.65736072	0.74126289
249562764	0.10206976	0.97667835
392307282	0.88680297	0.30982866
249672363	-0.07261552	-0.982172
253230925	-0.01260153	-0.96439994
192554613	-0.42046216	-0.35895795
257942128	-0.3223766	0.86905996
170590673	-0.97316498	-0.13032861
210633413	-0.95683177	0.22670371
189721287	0.7410441	-0.54618102
270700818	-0.83133654	-0.54150237
235582623	0.96041295	-0.25277345
192554615	-0.60234131	-0.2898911
249523612	-0.84687215	0.51857305
189720772	-0.84601748	0.51713584
190195184	-0.84579774	0.51676709
253692465	0.82801165	-0.21103514
210630266	0.39514528	0.78242769
249672410	0.24942587	-0.96226459
253238160	0.24895834	-0.96188759
253221444	0.56489003	0.67416393
170590667	0.53304498	0.65445537
253697808	0.09290533	-0.37334028
190195228	-0.45296147	0.88703385
425117939	0.75805535	0.41309785
329185886	-0.06135143	-0.99403696
253230931	-0.03419211	-0.99468782
189720752	-0.67092947	0.73226256
332062439	-0.3670482	-0.36053996
253477492	0.62781946	0.7234056
189352192	0.62200725	0.71899493
249523707	-0.98459542	0.01033624
481161001	-0.0307382	0.67147406
190195168	0.82895046	0.54667704
257191515	0.90277006	-0.35633405
342949484	-0.98213952	-0.02903166
190293646	-0.95407364	-0.0218606
259401325	-0.0311689	-0.04963309
170589414	-0.66997012	0.58085158
190195144	0.91593673	0.38215865
249672471	-0.67635334	-0.13188471
250232335	-0.23358561	-0.95782806
189721291	0.47251928	-0.47336147
473860207	0.22894342	0.9400284
439836250	-0.46651278	-0.81763744
210628486	-0.68648072	0.70856528
253136780	-0.21548883	0.96242995
253221399	-0.84450753	0.53033391
253230353	0.42924038	-0.6552861
250232940	0.04505095	-0.9928892
253230491	0.03877138	-0.97597102
263608185	-0.62237755	0.45621723
323864841	-0.15033553	-0.6178439
256239320	0.27264887	0.62107852
253233576	0.98766748	-0.12738226
192559100	-0.97185879	0.05621717
210633449	0.80131725	0.57509451
249671909	-0.2575062	-0.95783729
522426903	-0.58637438	0.49226655
441227671	-0.40596151	-0.34213924
249568327	-0.83715039	0.4716535
522426424	-0.92211204	0.28036878
189723292	0.62707261	0.3489543
484993876	-0.86887813	-0.45520989
253236249	-0.95412865	0.27275769
253479459	0.99053644	-0.11488421
253692534	-0.49079474	-0.84931447
253057838	0.83341163	0.51539083
209895114	0.14603124	0.97296068
253692553	-0.57450178	-0.71655042
189986522	0.90428962	-0.36077769
170590709	0.8207788	-0.36995914
256997118	0.96778944	-0.20584644
360854935	-0.2810297	-0.60693411
253057909	0.75317502	0.64284869
189721304	0.64154157	-0.75837348
210636197	0.99434022	-0.00282223
249568288	-0.75032707	0.41541841
249568297	-0.72539403	0.39045704
329186353	-0.37483945	0.86900093
439836252	-0.45894553	-0.84247529
170589420	0.2454936	-0.72739532
473860083	-0.03623286	-0.02252386
253057344	-0.1185415	-0.62213961
522420007	0.85413262	-0.37195329
210628093	0.78530275	0.58117373
392307585	0.96823042	0.15627722
190195199	0.96257226	0.15294642
252578602	0.13956039	-0.94661964
269952566	-0.13455965	-0.97975541
189720877	-0.73766506	0.6582934
253213802	-0.99036102	-0.05658108
249564498	-0.56793857	0.59268604
444989011	-0.29993804	-0.67081691
249563834	-0.027248	0.9923001
342949565	0.09315555	0.98970848
249563921	-0.06221717	0.9924277
481937604	-0.07821805	0.98334874
253475784	-0.9750536	0.06761905
257944355	-0.94440225	-0.15138935
253045761	0.05158007	0.009909
252912331	0.70564033	-0.69292116
249133354	0.92776057	-0.24110078
249523418	-0.40981141	0.90546433
189723307	0.7306603	0.64985997
249523399	-0.47816736	0.8701057
250235140	0.84381695	-0.47614578
253045759	-0.0855798	-0.02136177
468204054	0.92410031	0.32868675
191884390	0.09330061	0.98781927
259401322	0.02608165	-0.01252706
192554602	0.06736837	0.15879294
249563617	0.23544264	-0.96566254
210638724	0.94476329	-0.28325386
253227530	-0.27641475	-0.95527857
189720893	-0.61737714	0.76705773
253692552	-0.05299578	-0.76348074
253221433	0.55215055	0.73817147
264265930	-0.45358236	-0.83063741
253221809	0.83503474	-0.47039455
249562846	-0.40198379	0.80518456
253230926	-0.00834335	-0.98824166
258636747	-0.45648063	-0.41059104
249672021	0.52147956	-0.64932756
425117889	-0.55081879	0.144621
189721103	0.79267315	-0.57145127
249563442	-0.71206528	-0.6495226
248811486	-0.68378252	-0.60404897
253046506	-0.46332387	-0.87216629
253209689	-0.16847148	-0.96539914
253221398	0.65575038	0.45658528
192559103	-0.94809479	-0.28878925
189720797	0.54551271	0.66674161
253439146	0.16113482	0.70688038
210638715	0.70059695	-0.20693001
253697853	-0.02666866	-0.35963964
252912671	-0.60745902	-0.75706962
425118052	0.99699874	0.00243383
170589438	-0.24884677	0.80999965
258638430	-0.69079584	-0.68500718
253227585	-0.65985868	-0.69469592
210633390	0.73666004	0.43917374
189721091	-0.75833614	-0.44354285
250230998	-0.59239788	-0.79283454
249133408	-0.72511386	-0.32123004
257943871	-0.51236844	-0.81010475
342949527	0.85946595	-0.47543083
253230492	0.02476343	-0.985307
252589189	0.73759353	0.66164913
253441157	0.7863513	0.57093298
189721105	-0.50597076	-0.83653472
210638319	-0.72626792	0.67836494
250235058	0.89496217	0.41769376
261848738	0.06768959	0.08476286
249564421	-0.31419076	-0.52973846
249133443	0.38325322	-0.82430799
192554601	-0.0932242	0.98866531
250235090	0.65208544	0.74405091
263852884	0.76777629	-0.5626719
189721101	0.78494736	0.5804581
473860076	-0.01409139	-0.02563109
192557263	-0.09786095	-0.64545011
189721051	-0.45249917	-0.80886664
488073405	0.57748792	-0.64572286
249564142	0.77857869	-0.59933901
253046110	-0.41389203	0.66652447
250235252	0.92209722	-0.35370557
253233509	0.76615197	-0.64116526
252737358	0.76502648	-0.64089229
253045624	0.06849547	0.05476219
189723299	0.9886487	-0.00709903
235647965	0.75514297	-0.64249662
210624196	0.7573862	-0.6375909
249523336	-0.35454197	0.90203974
252736760	-0.91608079	0.37477921
253233437	-0.277334	-0.95513872
253041760	-0.27705335	-0.95514846
392307281	0.92352323	0.34793979
391028049	0.96936278	0.13199099
189721059	-0.51008714	-0.78661834
209895161	0.32256312	0.89367201
189720729	0.02429871	0.5253478
253221374	0.76676008	0.57532059
253233491	-0.13456777	-0.84828362
252578748	0.24688414	-0.86594735
425118006	0.98799274	0.07752128
425117938	0.72714342	0.66661503
210636327	-0.33571947	0.93374697
279598357	-0.76288196	-0.58289874
252590389	-0.99033301	-0.05647505
484995591	0.86647227	-0.49209324
210628546	0.97730028	0.08681477
235582612	0.82886317	0.54671022
195145842	-0.34445421	-0.5993512
252912500	-0.89728001	0.43315153
192557321	-0.89381335	0.43795337
190195354	0.70509951	-0.68900244
190195249	-0.93697044	0.22091439
253047191	-0.08620994	-0.45259473
170590677	-0.93307026	-0.25634506
250235222	0.79183036	-0.57141322
235581462	0.96243072	-0.14538877
170589330	0.65181402	0.74022426
253232930	0.87613288	0.46979471
328555780	-0.32187867	-0.8290585
189721046	-0.41859648	-0.6679107
253697849	0.00465494	-0.45039483
210633456	0.71348197	0.40702525
252578544	0.5834952	-0.77648573
210633435	0.5409534	0.78447864
279598334	-0.86027444	-0.46270266
210634906	0.77778741	0.59279502
252588448	-0.73220662	0.67115832
192554572	-0.06003384	0.99381178
189986520	0.91191646	-0.32907883
250235249	0.59877468	0.78984185
420310258	-0.48300655	-0.73043889
468107035	-0.18794551	0.27195338
253045686	0.70592125	-0.69020546
249523189	-0.6477811	0.75059635
189720835	-0.92172525	0.35936398
235578599	0.17411476	0.96069517
249672206	0.13772393	-0.86982806
209895188	0.08705853	0.87479874
192551438	-0.0408481	-0.42321795
189721335	-0.92094026	-0.33704838
190195333	-0.88693487	0.45101087
257937867	-0.96650193	0.17267886
504376084	-0.82795172	-0.51738511
392307268	0.88600936	0.28009573
253221418	-0.84369352	0.53009769
522426145	-0.11892782	-0.88049463
415903977	-0.97917089	-0.02837689
253698481	0.24327081	-0.93363904
253227773	-0.67840929	-0.71239152
250233065	-0.16372247	-0.97141581
253478600	-0.96127769	0.26852018
253221320	-0.94914305	0.26779534
472536542	0.15374062	-0.87068601
210635991	0.06385061	0.19485638
189721120	-0.30745769	-0.58456479
252912662	-0.9297632	-0.01643222
253209685	-0.163793	-0.96553549
252578614	0.12387954	-0.87354917
239411486	0.76483309	-0.63718675
210639892	0.73595263	-0.66937224
186166919	0.01953812	0.22846952
250233086	-0.21425341	-0.91926735
249133364	-0.73878457	0.6667115
249523277	-0.69264009	0.71210331
252577991	0.85476443	-0.4985245
209895235	0.41941107	0.86940447
253057869	0.7591959	0.44072686
249562810	0.97313342	-0.19093448
253213868	0.68574263	-0.62864947
253057925	-0.71754006	0.25655382
250235137	0.83172513	-0.47497391
189721310	0.83588076	-0.46987879
253139921	0.87664795	0.4674204
250235333	0.8744216	0.46624862
209895214	0.31785257	0.89643495
488077293	0.87891775	-0.44565136
249563841	0.16381471	-0.11205884
249563770	-0.74617217	0.25807914
252578426	0.0629224	-0.96142323
210634922	0.99506248	-0.01666112
257549946	0.98773527	-0.00473191
235581801	0.98248831	0.07599121
253221817	0.90133685	0.34625193
192554636	-0.36180824	-0.56895033
249523295	-0.39306388	0.91253632
210638317	-0.85981336	0.40463909
210630498	-0.68279252	0.01720506
249563630	0.08055506	0.45012055
209895127	0.31621773	0.89588852
249568285	-0.74265618	0.4646539
192554612	-0.43047028	-0.36081775
257778742	-0.82712383	-0.53153666
189720899	-0.82017913	-0.53743681
422050924	0.97048241	0.20329021
253226091	0.08700501	0.8993376
249523527	0.09328214	0.98901224
256997329	0.49142098	-0.7818007
256239182	0.26460165	0.60332307
261849762	-0.80532976	-0.51502827
252924853	0.4265958	0.79618466
249133377	-0.13160451	-0.86290039
253046091	-0.12032447	-0.64712374
329186282	-0.50898166	0.76305482
253689121	0.81720061	-0.55019704
249568328	-0.89302695	0.43798112
210638324	-0.87955998	0.45255195
253652647	0.02114788	-0.92887027
210636308	-0.21380185	0.96323636
522426742	-0.64241226	-0.33052169
249133424	-0.09273368	0.98780759
249564467	-0.07651053	0.98439431
210639531	0.97957488	-0.18843322
190195341	0.77995975	-0.56428875
190195202	0.84130757	0.09201423
250235133	0.84223082	-0.47022188
253057845	0.84104896	0.5072967
193879354	0.61592459	-0.5705703
253233578	0.96834616	-0.13965944
189720807	-0.91831508	0.35773936
253046983	0.06854764	0.34425782
253221159	-0.98048	-0.12985208
189986544	-0.0284815	-0.00040656
192557255	0.59923701	-0.45221923
192551445	-0.06991304	-0.395166
249133302	-0.22434918	-0.9108389
253688985	-0.43523002	-0.89142554
189720731	0.23477553	0.88983752
192554563	0.01723611	0.98880439
253439131	0.16913151	0.77536922
253047182	0.05707615	-0.45996989
250232509	-0.23395215	-0.95221428
253442105	-0.61255405	0.6925046
190293633	0.91732481	0.3832141
190195185	-0.02511303	0.99170861
189720841	-0.98023032	0.11811503
192551435	0.04834127	-0.35889885
190195310	-0.13070109	0.97940598
253697826	0.01171747	-0.42594602
253226399	0.20885337	0.74342912
190195219	0.84800357	-0.46746331
249568323	-0.78209168	0.59186432
209294406	-0.03862313	-0.00755342
250235179	0.78695608	-0.27537472
488082942	0.95547414	-0.0416221
189721327	0.94733981	-0.02375354
248827115	-0.67405064	0.73015378
253057940	0.73624593	0.65069285
253046093	-0.13137498	-0.66088666
253692549	-0.05371437	-0.76386497
253046883	-0.38192459	-0.39697646
250232826	0.04522071	-0.99256849
210638314	-0.82007299	0.4316534
253232705	0.56554941	-0.81309426
249133368	-0.18597433	-0.71452798
189720813	-0.81215146	0.53367373
249671933	0.05615199	-0.98616921
253233490	-0.11142891	-0.87559261
253206643	-0.13730975	-0.97765121
248827105	-0.67731619	0.72225293
522426114	0.49107969	-0.85270791
256239162	0.27855165	0.57773298
210634944	0.81216678	0.42446529
261848622	-0.79027943	-0.58575493
261848605	-0.79479495	-0.58295166
250235345	0.83185993	-0.37362665
210639934	0.76562839	-0.63920673
488077174	0.9776892	0.1715161
210636221	0.97627899	0.08384822
261848837	-0.83100792	-0.53361703
257945690	-0.66244173	-0.66293732
235527618	-0.35894825	-0.91157947
253056641	0.85148879	-0.51551009
253225723	-0.07080574	0.83813418
189720723	-0.05834079	0.78221532
332363858	0.16167654	0.72270024
249563187	0.15518569	0.72239411
190195174	-0.58674696	0.77610282
522416777	-0.5214524	0.18109183
235581793	0.9799907	0.11593897
481937704	-0.81842736	-0.53847398
209895104	-0.23125279	0.48874759
189720921	-0.8075405	-0.5739627
256996908	-0.983194	0.06083551
252589199	-0.88071291	0.45747245
253688987	-0.23699497	-0.74002046
192559090	0.76561623	-0.63986141
253057930	-0.95463314	0.2740463
189720799	-0.92653505	0.25880457
253541244	-0.40287304	0.80582281
253221635	0.6870056	0.67396626
253047176	0.69230208	0.508043
481162741	-0.43116275	-0.37215091
190195195	0.81176003	-0.18323989
192621457	-0.85195511	0.26330735
256997111	0.96764512	-0.20602483
253475929	-0.95495516	0.27343184
257947272	-0.0270066	0.0064232
235578605	0.1949052	0.96033189
189721133	0.64204762	-0.75359252
210636211	0.97228988	0.20734006
252578550	0.19746255	-0.85743122
253139435	-0.62410449	0.77406777
209895213	0.33328153	0.90455803
249564476	-0.09113169	0.98810444
189720917	0.58636762	0.79632986
192554621	-0.38221378	-0.36481607
189720809	0.6580088	0.74065876
209895329	0.38975335	0.86377575
253238242	-0.41269441	-0.3861919
253041928	-0.68306574	0.66215008
235582580	0.87766502	0.27768091
253652603	0.31388448	-0.94246958
253214278	0.97790677	0.171602
253214279	0.96602197	0.19703734
258638278	-0.3099343	-0.92305617
330505462	-0.7563724	-0.36348096
253209686	-0.16854351	-0.96307795
253692544	-0.01391505	-0.82535906
189457059	0.60464257	0.77833924
170589344	0.60688751	0.77414499
252577976	-0.37805079	-0.73161725
422018686	0.23275676	0.78770333
472536560	-0.42173812	0.87867943
192557322	-0.77005046	0.17562801
522426092	0.62203095	0.76037584
210638312	-0.90994203	0.39818983
261849901	-0.91664381	-0.28751418
190195161	-0.58550969	0.49358488
253046401	-0.40038962	0.79736723
253233747	-0.23057851	-0.9134452
235581445	0.98663315	0.1169326
253439081	0.19155024	0.79912497
190195177	-0.50204524	0.84220751
249463966	-0.5665294	-0.71174092
189721061	-0.48001793	-0.78890274
250235226	0.89882013	-0.41593794
192551447	-0.000347224764	-0.376516284
253139799	-0.91497687	-0.38598791
189720907	-0.76601428	-0.61063446
191545032	-0.98497114	0.1083981
195145794	0.93255609	-0.09264583
249602409	-0.66492936	0.73543295
253221903	0.62971131	0.40037483
253221052	-0.14110587	0.55761696
258636800	-0.20178781	-0.93629956
209895165	0.27676227	-0.94154234
249133366	-0.19529416	-0.70294167
190293637	0.06265883	-0.98713706
256238763	-0.22921119	-0.92811976
253700067	0.24918553	-0.96072977
210630469	0.0784711	0.67103778
210630245	0.34556282	0.72992829
189352162	-0.97723256	-0.10199028
253045573	-0.43514635	-0.89125989
261848797	-0.80273608	-0.58627195
253237597	-0.93657781	-0.01526506
170590671	0.43001549	0.86640152
210636205	0.8487228	0.45299398
257942072	-0.2867461	0.93487336
253140260	-0.06172608	-0.99378191
392307285	0.92721526	0.29966189
252591147	-0.84886874	0.44663652
328840232	-0.31148838	-0.74889613
253226774	0.40184617	0.88210859
253238244	-0.429269	-0.36049411
484993998	-0.95934492	-0.22525325
210639906	0.75337371	-0.64154166
190195334	-0.88539576	0.4495387
249133439	0.57192924	-0.68472365
480982844	-0.14347808	-0.62755875
252578540	0.55577898	-0.78846112
192621450	0.01521793	0.9911813
252912302	0.53002697	-0.67957066
257942204	-0.28725225	0.9350403
249672067	0.24513737	-0.93423178
253698518	0.24321361	-0.93103695
192553646	-0.08885385	-0.87610848
342949535	-0.53680989	0.83646349
249523796	-0.53911146	0.83471451
264488610	-0.47612392	-0.85560884
253477828	0.72374817	-0.52448398
249564574	-0.60001799	-0.73731357
249523191	-0.72517314	0.67959547
190293624	0.97378521	0.11486034
253042258	-0.12629484	0.9865401
253238171	0.24666751	-0.9436397
253227197	0.56003066	-0.6958371
250235083	0.66483785	0.73141403
209895169	0.38947681	0.86338387
249563513	-0.15299189	-0.94127287
472535607	-0.56717283	-0.81328141
210638726	0.97256434	0.13955212
257778735	-0.83148903	-0.53889899
257778730	-0.83070281	-0.54049691
257942205	-0.17299039	0.97139455
192626593	0.7149567	-0.5851372
192626581	0.46248	-0.09876186
190195288	0.18652834	0.97418182
248827238	-0.58516312	0.79736346
253233750	-0.21582198	-0.92322505
473860104	0.7359412	-0.25712528
258636776	-0.66519651	-0.66521244
253695512	0.64490204	0.75077162
253439085	0.09954608	0.74922734
250235128	0.82760312	-0.53511288
249564567	-0.59734536	-0.73714662
250233106	-0.39612137	-0.86092425
189721306	0.9148442	0.3815203
253692547	-0.04482463	-0.77602872
192554582	-0.05201465	0.98991906
189721240	-0.97858143	-0.0285805
472535650	-0.56719748	-0.81330709
253045631	0.01359001	0.09671249
249468910	-0.59113188	-0.76889467
192551431	0.47751794	0.86462893
189721020	0.47678179	0.86400492
257943875	-0.57276075	0.74441793
253692561	-0.04220369	-0.75636764
425118150	-0.02065491	-0.02537394
209895121	0.24620248	-0.94672683
253227587	-0.26436841	-0.73507601
170589426	-0.24499669	-0.73518486
248827154	-0.65819657	0.72387192
332363467	-0.74381774	-0.37450897
253221403	0.71261402	0.49503131
253056722	0.77587455	-0.47560835
189720881	-0.21280251	0.96923481
210633423	-0.84754804	0.4352915
209895081	-0.55052932	0.16346179
253206601	0.17795551	-0.94362159
190195197	0.82864615	0.54657739
253206552	0.16900442	-0.80670647
252578024	-0.4049947	-0.74719689
253227774	-0.91741487	-0.38599786
256995475	0.97642667	-0.19059004
253047183	0.10341567	-0.47265571
522419902	0.09508699	0.87161732
481160986	0.36543624	0.73874647
189610847	0.52907642	-0.40414875
472542571	-0.18486274	-0.70388083
253226769	0.21378104	0.96021633
253221371	0.74006543	0.59499486
190195351	0.90389935	-0.34503944
258636774	-0.67402413	-0.66504632
209895091	-0.66179563	-0.73564391
189721279	-0.30349027	0.93342644
253541276	0.1326257	-0.90992815
481937870	-0.79987081	-0.57295154
256341835	0.70541358	-0.69049732
263126908	0.33034454	-0.75099768
249464032	0.95796688	-0.22730284
259400686	0.71853562	0.41297602
494396698	-0.92858097	0.27904813
253478588	-0.59370107	0.3788385
253230809	0.39631281	-0.8859108
253057899	0.99580545	-0.01203524
248811482	0.38068652	-0.83246957
235582651	0.95740863	0.16058791
279598335	-0.8662838	-0.45729106
253047177	0.69807201	0.69380637
253238092	-0.26090379	-0.94694902
253046694	-0.16617223	0.85342837
257778552	-0.93951208	-0.2435035
425118031	0.49962271	0.56300108
253209488	-0.7431835	-0.30541098
257193711	0.98744326	-0.07573718
253221639	-0.61432158	0.69198094
189720866	0.07061168	0.15483497
253692548	-0.34526199	-0.85280894
190195156	-0.03890723	0.06198863
192557325	-0.92111855	-0.09833902
189720782	-0.93204263	-0.14960692
258636772	-0.6521905	-0.69173697
189721255	0.31382197	-0.94301077
269952562	-0.13530103	-0.98033767
192626587	0.33825157	0.16608473
189720801	0.56346694	0.68226176
249672114	-0.34244627	-0.76440532
257947585	0.29192103	0.08138914
253041135	0.27193314	0.95532061
252578711	0.09819943	-0.85405214
253136825	-0.19793872	0.95287048
235648068	0.92299063	-0.3549118
189720754	-0.42114532	0.90050872
468203871	0.13285688	-0.97669421
253227409	-0.03583942	-0.99308766
253699607	-0.73178686	0.67818048
249563813	-0.86443832	0.32532625
209895137	0.21100574	0.91840401
253541157	-0.08802365	-0.91205157
248827972	0.90358602	-0.13604479
250232954	-0.17825779	-0.9710849
249563709	-0.64583868	0.61754186
210630471	0.01084727	0.58089867
249563662	0.01520299	0.99103136
189457055	0.58550755	0.80137404
253226445	0.8504048	-0.49765741
481937763	-0.928714	-0.30211343
192621500	0.32829888	-0.73974419
481162789	-0.22681423	-0.90593934
257947271	-0.05495617	-0.00433071
253226434	-0.10441151	0.82354192
249564341	0.23720649	-0.96197722
253477725	-0.9907642	-0.05637719
210639330	-0.3844757	-0.7986025
252578656	0.15733602	-0.84546065
279598458	-0.85709398	-0.46233787
253237995	0.17478317	-0.95050345
253652867	0.98070642	-0.15605224
249562799	0.39684914	-0.88415506
209895384	-0.63738068	0.60192345
190195162	-0.57276814	0.81076357
253046956	-0.04643479	-0.01418077
249563755	-0.88761772	0.28933501
235582712	0.95510761	0.135274
210635981	0.39469662	-0.64887678
253478574	-0.63233658	0.34464992
253057597	-0.28695083	-0.94103123
248811477	0.41425086	-0.84101422
249672022	0.13902871	-0.96991642
190195220	0.87324378	-0.4646846
192554567	0.47425605	0.64896215
186201603	-0.92089671	-0.33825707
192554559	-0.04997142	-0.28048537
192559102	-0.97007247	0.05198847
235582644	0.47931341	-0.86273399
249133379	-0.09679954	-0.91131569
253057841	0.83150464	0.50348569
210636305	-0.84001812	0.53322824
249677940	-0.79021671	0.59269724
422018624	0.99494326	-0.0240908
235581797	0.98506339	0.10394323
250235225	0.74842053	-0.40149173
249568294	-0.75810842	0.45795944
418563157	-0.71360342	0.3967518
252588974	0.97362518	-0.19189964
253233388	0.97393264	-0.19086176
249564565	-0.00407211	-0.50874218
253230381	0.11541508	-0.85911547
235581822	0.78273387	0.09349598
257945920	-0.77692085	0.58871431
253045625	0.05088403	0.0349564
189610645	-0.0426112	-0.76077798
190195236	-0.47796633	0.86996191
257778744	-0.82217711	-0.50413711
189720915	-0.81186781	-0.49520858
264723119	0.75548871	-0.6440995
250235279	0.91801643	-0.37524577
210633444	0.79962287	0.3808316
250235298	0.96373495	0.02404324
252590421	-0.63142406	-0.45533961
256354835	0.5124228	-0.84281262
253692559	-0.06026886	-0.76154241
250235197	0.83429356	-0.38023172
514497099	0.68895921	-0.64912346
261848834	-0.81951884	-0.53740947
248827229	-0.58521062	0.79768194
210628521	0.89300271	-0.09118326
253233755	-0.2161648	-0.90822345
252914277	-0.2555317	-0.95645739
250235188	0.96074862	-0.25260581
480982818	-0.13866384	-0.64177209
252577801	-0.62130886	-0.62387206
257193830	0.94972345	-0.28598638
252578647	0.12725149	-0.87519656
253688991	-0.25385724	-0.74709893
250235193	0.96063743	-0.25209481
253213696	0.01268648	-0.9367018
250235139	0.83306252	-0.52728507
263608098	-0.64177576	0.6174598
253688918	0.31401959	-0.94303574
248833274	-0.16641495	-0.9623166
488079423	-0.28486546	-0.91598296
249563545	-0.94855328	-0.06740792
422018626	0.68454278	0.45470328
192551434	0.01035446	-0.38358196
250233075	-0.13572859	-0.98259082
253209664	-0.46298205	-0.81465611
253057923	0.55322054	0.46994838
249523698	-0.82752019	-0.52257091
422018582	-0.75811849	0.61062696
189721040	-0.13028845	-0.64022399
210628501	-0.16353241	-0.62291617
235582720	0.9414045	0.16576555
209895079	0.27729048	0.9573463
190293647	-0.16461298	-0.63889192
254830662	-0.22515483	0.93283805
190195279	0.49233817	-0.85632183
210628094	0.79557531	0.57433568
253697810	-0.01658266	-0.32232037
249133457	-0.60389139	-0.76741904
249562733	-0.23073139	0.03220879
262932864	-0.92962324	-0.34682587
253238019	-0.23378958	-0.95879109
257947274	0.33763257	0.18942747
472536570	-0.01968778	-0.28327096
253221241	-0.93008251	0.29527574
190293630	0.6198774	0.7648357
210633469	0.96907261	0.20415917
253227772	-0.68007515	-0.70639572
328553769	-0.48245471	-0.85835918
253233516	0.7538781	-0.6452967
257945931	-0.76657421	0.58837146
253139840	0.27933216	-0.86257298
249133445	0.37318126	-0.85274921
258636775	-0.67880924	-0.72084604
392307266	0.88691684	0.30317791
256354789	0.47566681	-0.8640162
210628542	0.97771803	0.08871402
257346330	-0.30971093	-0.66616273
250235185	0.85679011	-0.24751324
190195143	0.91613803	0.38226837
256995546	0.89551156	-0.35384565
261848753	-0.17037089	0.96563279
253652864	0.98382659	-0.14486353
210639396	0.24262849	-0.9301916
421816070	0.52851387	-0.75914185
253699589	-0.47909801	0.87049464
189720742	-0.45019838	0.86405568
210633446	0.70421221	0.39354013
484993873	-0.86385914	-0.46899184
235582582	0.94998664	0.27100749
263608184	0.22418907	0.72953755
253439103	0.1421861	0.69598758
253698519	0.24347617	-0.93072016
253214108	0.3218513	-0.93262773
253441229	0.72491869	0.37684756
190195359	0.66319157	-0.70930625
210635998	-0.05954619	-0.9871412
249133392	-0.01951315	-0.9561708
261848752	-0.17638385	0.96372411
253034198	-0.143615	-0.978122
522426856	-0.98635677	0.08337963
522425691	0.85739051	-0.37413805
484993993	-0.86300872	-0.46559062
425117961	0.55499121	0.67032352
170589418	-0.93693413	-0.14610725
253233748	-0.22611027	-0.93054183
329185882	-0.06314725	-0.98589852
249672056	-0.10342437	-0.86497047
186201605	0.50758958	-0.39359325
189721144	0.17857483	-0.2048452
253697851	-0.01375795	-0.40484833
253237140	0.36348153	0.9192131
189986527	-0.98343702	0.0023601
253057896	0.85212679	-0.51080392
189721267	-0.24953307	0.94149538
189721275	-0.26970433	0.86026973
235582711	0.32534284	-0.93134395
253439133	0.15972499	0.75446917
249562802	0.92317446	0.12324949
189721273	-0.17331578	0.96335391
442122619	-0.72011968	-0.64350854
253688990	-0.27644457	-0.75211159
249568329	-0.94865191	-0.13496486
253056647	0.87500283	0.46643815
252589793	-0.14198874	0.97684006
249563759	-0.89650366	0.29316036
253225710	0.05497896	0.89635897
249563522	-0.184654	-0.97564238
210636187	0.55278928	0.47295029
258638275	-0.25796466	-0.92923422
422018621	0.67074818	0.42879827
189126970	0.27249698	0.73296347
189986516	0.65093399	-0.75126692
262932888	-0.92791461	-0.34334334
253439933	0.21660893	0.94288609
252924875	-0.69003171	-0.63383901
253696208	0.70902416	0.4782879
192559053	-0.32552558	-0.55361118
253221036	-0.45348663	0.13073098
209895308	0.51110367	0.81507121
481937708	-0.80773745	-0.573868
252925381	0.01493483	0.98961918
342949533	-0.65044699	0.34616336
253696186	0.92781119	0.33312906
209895228	0.30316737	0.91458026
190195221	0.85900523	-0.47866187
192551441	0.02254972	-0.38621098
249564212	0.30812055	0.9393892
253045429	0.29251485	0.93652723
189721265	-0.82416338	0.52915805
252578432	0.26278541	-0.83941616
343905930	0.13573738	-0.97089275
253226104	0.12050587	0.91419739
189721038	-0.45449232	-0.82528459
193879351	0.35169651	0.13893428
409078424	-0.36528035	-0.87172855
249564314	-0.39256548	0.66860811
249672205	0.15560001	-0.83199602
392307275	0.94713307	0.28629166
256240507	-0.1429249	-0.63332682
261848616	-0.80023889	-0.57888006
253439101	0.16169816	0.76544438
235647899	0.76226074	-0.62393652
170590659	0.75057083	-0.63079291
189720756	-0.42213677	0.90005478
253221545	0.58751428	0.70281678
425118084	0.59716386	0.68332051
250232502	-0.2283824	-0.96243231
253046957	-0.05373055	0.03645164
252578674	0.19744051	-0.85532136
257948105	-0.05953359	0.0578925
210628073	0.78971762	0.6001032
210628531	-0.89279567	-0.27782361
480982842	-0.13466406	-0.64988477
253046370	-0.44349795	-0.86814397
253477684	-0.91557516	0.35306925
170590701	0.86218342	-0.45030433
253046945	-0.05829089	-0.00133576
192557240	0.79331727	-0.28756954
472535800	-0.80142693	-0.58468644
253692600	-0.69643496	-0.66435056
484993828	-0.86660795	-0.46716225
189720735	0.29173077	0.94783005
253047126	0.11914448	0.98188662
192554584	0.6845034	-0.20281045
209895118	0.32675433	0.9036147
253057847	0.99867763	0.00610845
249133451	0.38201719	-0.84300645
257778549	-0.951278	-0.25989165
328840191	-0.00668129	0.18676322
210634932	0.78860301	0.57966144
189734192	0.56408407	-0.43067047
249672338	0.33882649	-0.88984781
192553636	0.24900324	-0.94488599
189721071	-0.49908953	-0.8243903
253692554	-0.26209795	-0.833483
253221389	0.74779742	0.58878086
253139884	-0.13059145	-0.97606932
189723311	0.75464739	0.64301482
252912503	0.39423412	-0.88922088
495388078	0.94256241	0.15077078
210633424	0.93878295	0.32439411
249568325	-0.79967174	0.58105691
210638741	-0.34116432	-0.91840934
249523298	-0.40941498	0.89767086
209895080	-0.55424062	0.13212884
261849770	-0.56712448	-0.81640917
210630253	0.0155187	0.99085849
334334170	-0.16587033	0.27965463
253233633	0.19392398	-0.8971544
259401254	0.03992373	-0.00160688
253057954	0.6290589	0.71974714
252578546	0.28077488	-0.87565948
484995578	0.85279548	0.45216334
444988946	0.19062128	0.74355851
249568318	-0.92095091	0.3502462
192554600	0.04306593	0.98897498
253056742	0.91828389	-0.37479116
189721115	-0.20378827	-0.64437731
253226124	0.08938388	0.93092213
253136502	-0.75682634	0.64634661
328840600	-0.06068482	-0.98325387
392307276	0.98877294	0.00154286
210639474	0.12851804	-0.97095953
249564505	-0.61405732	-0.48418064
253539059	-0.11645729	-0.89417811
253042360	-0.49434423	0.77588949
488032387	0.51780635	-0.84260367
253221240	0.82469555	0.43673665
257778737	-0.81901109	-0.54463658
210636264	0.97076844	0.19733306
210630291	-0.43786585	-0.84988391
235581458	-0.97891765	-0.12966463
253046682	0.08705113	0.36347872
488070400	0.49908537	-0.854449
253236209	0.7250564	0.67171249
253237076	0.33268281	0.9308538
522416776	0.53462377	0.66276517
249564303	-0.41628868	-0.33309846
249563520	-0.29218918	-0.93606223
189721036	-0.52203304	-0.69638548
250235201	0.6002457	-0.24703414
249562765	0.01520802	0.99112509
189610631	-0.02952641	-0.76580942
263126960	0.13158486	-0.97987266
253539038	-0.08194728	-0.94006485
421816072	-0.25707397	-0.6338832
189720746	-0.98285634	0.00462602
253238237	-0.41373346	-0.36115871
253047180	0.62760575	0.7186084
189721069	-0.06776661	-0.09385497
253692569	-0.03839039	-0.78787707
210639509	0.60199366	-0.76514348
195145830	-0.93977331	-0.14675453
253539092	-0.22904263	-0.91937459
264722980	0.62162603	-0.71952578
258636751	-0.24752841	-0.74283031
253539052	-0.153803	-0.86066471
192554614	-0.63130113	-0.32323033
209895094	-0.67471409	-0.67801175
257549919	0.91169374	0.27913508
190195179	-0.84572431	0.51842029
210639340	-0.283612	0.95207709
189721269	-0.25527522	0.85929229
249133411	-0.59748266	-0.45408483
481238612	-0.33714498	-0.7985199
522426093	0.62150722	0.77043595
522425694	0.62615736	0.76939347
408471364	-0.34347061	-0.38884186
252924884	-0.35313663	-0.92790914
253645107	0.60890975	-0.76237104
253045762	0.00074066	-0.02708516
250232243	0.06678928	-0.99065375
190195181	-0.85400568	0.51041183
252925089	-0.58276858	0.75284434
270700838	-0.56939923	-0.81360308
210630279	-0.41503692	-0.63568406
488032373	0.49741408	-0.85295915
252578424	0.10793736	-0.92419821
253046974	0.17125539	0.30267777
189720827	-0.84869652	0.33291651
210633387	0.75409256	-0.56945045
170590693	0.9898881	-0.07352213
257193954	0.9520451	-0.23265467
253233463	0.11187657	-0.82638288
189720821	-0.95474363	0.27311652
191884351	-0.98236649	-0.00375078
191545035	-0.53063422	0.79654508
488073401	0.3116948	-0.93306678
442121349	-0.20675471	-0.95634476
261849772	-0.86990433	-0.47220524
252578557	0.19131773	-0.86930248
522419845	-0.71831247	0.40972893
190195200	0.4250848	-0.89183712
250235092	0.65703147	0.74112602
210636292	-0.06246527	-0.98261419
263568772	0.00549247	0.95634471
249566544	-0.45327744	0.88134787
210635986	0.48140068	0.86785871
249133396	0.31297837	-0.88403794
248827287	-0.53879831	0.83502055
252912508	-0.64599449	-0.44541315
192559080	0.80147201	0.48308584
253046135	0.01777627	0.02475174
252578552	0.03570602	-0.94772747
253221443	0.43091902	0.88865963
252592047	0.54733595	0.47061047
249133356	0.64197701	-0.59004892
192621442	-0.96281056	0.03796744
252924882	-0.71709206	-0.62417924
253045634	0.47757827	0.86297529
189967541	-0.06896881	0.9895017
253696261	0.09311471	0.93917726
484756253	-0.69219646	0.68181754
253045764	-0.08070394	0.9391614
190195198	0.96082621	-0.2524934
249523291	-0.43134296	0.88144067
250235309	0.93658734	-0.0023858
253063571	0.42910595	0.80263846
253221387	0.75698996	0.56708155
253045533	0.49867132	0.82004564
249564278	0.27669166	0.95556331
253689096	0.84629956	-0.44806143
256995495	0.68114224	-0.63369008
249564582	-0.59816221	-0.7387343
522891247	-0.8395941	0.53176865
484993874	-0.86021458	-0.46030022
253692557	-0.03169485	-0.764562
253221386	0.7422631	0.59006088
249568313	-0.92705013	0.35021664
253238206	-0.11813814	-0.88499282
520815836	0.60957982	0.77313299
190195261	0.49794215	-0.85311272
253233618	0.87678417	0.46790508
484993947	-0.86734016	-0.47419652
249133352	0.69050931	-0.19931607
257942117	-0.31985793	0.87410212
249564087	-0.5087354	-0.78123565
421411715	-0.47763972	-0.74309211
253057727	0.83998702	0.44309742
253139834	0.7447003	-0.15557955
252912345	0.91974275	-0.37978197
189457057	0.60853897	0.77507973
253057839	0.83718365	0.4992135
192557295	0.28338428	0.06066692
252912509	-0.72818965	-0.4952708
170589338	0.60680732	0.77370859
253477731	-0.59666699	0.78542356
248827209	-0.59713992	0.78552019
209895151	0.10103331	0.91540582
253697852	-0.00518516	-0.38670485
248827133	-0.64972137	0.74355754
264266088	0.82298451	-0.51239845
189723283	0.28357646	0.17907638
249523532	0.09346709	0.98829933
391028053	0.92004388	0.1424045
259401298	-0.33625392	-0.56074666
249563515	-0.07554726	0.97300825
253046670	-0.091073	0.96181825
189721285	0.50121335	-0.7792975
249563512	-0.25113176	-0.96150269
249523190	-0.72090559	0.67687016
253134899	-0.71130571	-0.31889804
484993899	-0.87585943	-0.456391
330093375	-0.24891279	-0.8988196
190195212	0.80144153	-0.52762459
342949537	-0.72393891	-0.6764728
190195193	0.97376528	0.11508239
189721318	0.73009781	-0.21239074
257944294	-0.53302498	0.68912071
488078406	0.65692879	0.73232188
249133300	-0.13573551	-0.97855735
252925293	-0.68392064	-0.70449298
328555913	0.0323432	0.21234029
481161023	0.90570166	0.14105426
210628079	0.55103657	0.70612547
253238232	0.41460319	-0.87805609
468203900	-0.40904089	-0.67813846
522419867	0.48668538	0.805285
210630264	0.34993039	0.74519995
252578549	0.08569294	-0.96561322
253046996	0.14275908	0.37219699
253477663	-0.75579756	-0.60028647
250235219	0.77477594	-0.38845631
249677769	-0.4135021	0.88180546
522425655	-0.889423	0.38930233
250235242	0.71894379	-0.26430859
249523266	-0.73497987	0.64747024
249563407	-0.4232825	-0.8482523
249564555	-0.04783022	0.0277164
239411482	0.76382138	-0.63860816
253225694	-0.04664441	0.89813787
253441115	-0.95803154	0.22669829
394516803	0.73092969	-0.51555829
253652659	0.56520526	-0.81271074
192626583	0.25300778	0.10907922
209895229	0.26303439	0.93612684
253045632	0.15474929	0.49794245
253688992	-0.38887528	-0.77803317
253213751	0.8535118	-0.50120631
248827119	-0.65884205	0.74332374
250235230	0.91037927	-0.09048514
250231080	-0.54621195	0.82505003
250232397	-0.24644603	-0.96247293
257941196	-0.55363383	-0.69120768
170590751	-0.75438431	0.3929976
210639338	0.44363293	-0.62093237
468107875	-0.96006505	0.11422679
210628529	0.90882971	-0.39103087
191544517	0.9501228	-0.28581688
253233467	0.05621056	-0.95277116
252578107	0.87328076	0.4655555
253034084	-0.730726	0.67140935
258638277	-0.31963033	-0.91631658
253233635	-0.77697512	-0.38989935
249133433	0.62688332	-0.70084663
257945601	0.60576765	-0.7856343
253688994	-0.29621559	-0.75341472
250233079	-0.37825523	-0.89994951
253697827	-0.01054037	-0.32937656
189721296	0.70557333	-0.68959901
252578548	0.18471551	-0.95974635
252588552	0.74061985	-0.51049724
249523786	-0.80369388	-0.58474561
253697809	0.12634702	-0.42465533
249563192	0.12901702	0.68973727
190195141	0.95129028	0.18325756
210636351	-0.21264495	0.96877566
329186363	-0.54160269	0.71493306
252577666	0.97540695	-0.20623891
249564276	0.29085002	0.94039338
190195194	0.96904006	0.10266337
253439138	0.15394972	0.67605829
249133414	-0.57722371	-0.3183941
250232772	-0.11818548	-0.9650784
253441132	0.23007515	0.17688442
252590744	-0.72667279	0.6791906
253652668	0.8681979	-0.43684527
253047129	0.13307919	0.97833751
253692468	0.05994545	-0.0097589
263608103	-0.63847794	0.59782665
257944387	-0.14597043	-0.63851764
263608176	0.14449526	0.7459088
190195368	0.82739257	-0.37357985
193879395	-0.04822143	-0.01836682
253476171	-0.90023232	0.40596115
250233105	-0.35641725	-0.87275404
253057928	0.95834208	0.04033499
250235175	0.98779199	0.06271679
253692566	-0.04796415	-0.76504054
249672450	0.27902467	0.57835054
253539058	-0.09028603	-0.89743419
330505461	-0.7254992	-0.66509736
253237375	0.43533724	0.80624481
253233517	-0.46979174	-0.85568769
210628425	-0.97504158	0.04853999
256238697	-0.25169276	-0.92113351
249133453	0.38221362	-0.83614365
248827286	-0.56939371	0.81414824
487649687	0.59065914	0.79313604
253540329	0.81230589	0.484441
209895433	0.40813242	0.86579377
481937837	-0.94239074	-0.26223066
249568317	-0.91260958	0.35337937
189720833	-0.91579055	0.35321654
252578539	0.09694998	-0.84374945
253692562	0.01265698	-0.83358493
250235134	0.85094774	-0.46559607
253697836	-0.05797998	-0.39863506
253230471	0.88976324	-0.42250452
261848832	-0.56694893	-0.8123524
481937697	-0.56728614	-0.81322935
468203844	0.11289854	-0.97914731
189721055	-0.48602699	-0.60276929
252578547	0.14872505	-0.81617427
259401265	0.71063979	-0.02037279
256239117	-0.9295527	-0.01021762
253238241	-0.43107544	-0.36234707
253227427	-0.23158058	-0.72479314
253692545	-0.00365842	-0.78226462
250232818	-0.32299554	-0.90834052
190195190	0.93553972	0.22486582
170590689	0.89576387	0.41643639
189721032	-0.27685294	-0.95524249
209895150	0.23572455	0.90863434
209895174	0.20912693	0.96318511
253045590	-0.6451803	0.64419126
190195180	0.10068513	0.59680225
250235136	0.83365146	-0.4986214
209895231	0.30522798	0.90366626
253226402	0.2126192	0.73398881
252912501	-0.71758593	-0.39028502
468203918	0.40315373	-0.83232925
253238036	-0.66583626	-0.71094787
249568287	-0.80052497	0.46880436
472536551	-0.39501888	0.90431905
249563189	-0.61186873	0.69413795
210639384	-0.17101797	-0.93620458
210633408	0.7148681	0.39689787
253478214	0.62740721	0.76273755
210628078	0.56822051	0.69877625
210636350	-0.12750066	0.98714463
189721148	-0.52067995	-0.77050737
253692565	-0.04464116	-0.77448692
253230810	0.39585342	-0.88567168
253233507	0.41802208	-0.85535079
342949521	0.90948259	-0.05294254
209895244	0.2151599	0.962294
189457053	0.80807586	-0.27545613
253478576	-0.96347947	0.17635592
210630467	0.0259721	0.5800502
253057793	0.83933744	0.52425324
192626518	-0.281664	-0.94171056
264265929	-0.47322094	-0.82391161
258638285	-0.19947308	-0.96542025
170590713	0.9322059	-0.31167076
256996639	0.06093214	0.06231928
209895136	0.31667271	0.9303152
253441153	0.78741591	0.60022629
253047109	0.10610063	0.26224227
191545044	0.93039199	0.27000328
522426871	-0.84735277	0.37138344
522426146	0.24407896	0.90528859
210628049	0.39233218	0.87061302
481937818	-0.93404244	-0.27925579
257945597	-0.93141994	-0.33519069
235582587	0.96799288	0.17295056
192621434	-0.45304463	-0.82901703
253214179	0.64777152	0.75052511
253477486	-0.97953989	0.1291653
192554625	-0.07767303	0.38559786
249568324	-0.25720214	0.80118916
375109895	-0.94907319	-0.28808378
257778729	-0.82023439	-0.5389977
253221544	0.65583059	0.70429731
209895192	0.20061085	0.91538651
261848828	-0.82453457	-0.53991746
253230399	0.87518825	0.46603731
253047178	0.69576873	0.69900019
328840229	-0.2522513	-0.74093676
170589428	-0.9595084	0.17808021
210639915	0.75472519	-0.64125986
253652868	0.98160028	-0.13518999
484756233	0.23133471	0.88940052
481422630	0.2528985	0.57165731
253046683	-0.081115	0.93887373
252578581	-0.4351705	-0.89115478
249133435	0.51113563	-0.64696877
253540418	0.98147211	0.13376949
257549912	0.87711342	0.28137264
190195242	-0.55545812	0.51846396
328555914	0.05844409	0.21136619
192557314	-0.12727277	-0.64232513
210636173	0.78793758	0.59117251
210634929	0.77784408	0.42021147
391028051	0.91327668	0.1745941
250235102	0.09366638	0.98827013
253136501	-0.75454434	0.64665946
210628533	0.96597282	0.13875766
468203913	-0.47090645	-0.7022722
192557254	-0.19995838	-0.59971412
250232613	-0.28035535	-0.93121844
190195332	-0.52695371	0.8403511
190195205	0.42155574	-0.88799494
249463968	-0.60567302	-0.75011375
422018612	0.72577184	0.65783823
522426695	-0.426497	-0.37266384
252578658	0.11393775	-0.93660758
193879394	-0.06396298	0.02425183
253057936	0.71162636	0.46021991
210630465	0.09363431	0.58945135
253206540	0.12468846	-0.92602521
249563537	-0.25291073	-0.92349502
190195309	-0.62385466	0.77356877
253221905	0.72512473	0.65911214
253692560	-0.08985504	-0.74926346
253056635	0.31731281	-0.93240799
235648061	0.92972255	-0.2946524
257944364	-0.56651145	0.68334103
189721063	-0.68864911	-0.58504502
210628527	0.90861955	-0.39128567
250232650	-0.35438066	-0.92794804
481939878	-0.620156	-0.77300836
253237075	0.33921834	0.91967533
441227901	0.68885907	-0.68627732
257778550	-0.93142145	-0.25120993
186201339	-0.7216665	-0.66895976
170590705	0.70297492	-0.21130785
328840609	0.11039719	-0.85115973
253221467	-0.95382551	0.26712459
253209485	-0.72650688	-0.6602941
250232300	0.00385322	-0.526536
481937705	-0.82164503	-0.5370164
253541168	-0.37791214	-0.32379711
253539050	-0.17423356	-0.83458212
253139499	-0.61467341	0.76422213
190293627	0.62307638	0.76487683
195145792	-0.00427663	-0.0535385
249523494	-0.56903466	0.80511633
342949525	-0.78067855	-0.60183399
342949518	-0.77989122	-0.60193232
257945974	-0.94832872	-0.29100811
253214106	0.31346977	-0.93761691
253237371	0.43283636	0.80697344
190195231	-0.79009486	0.55018976
256238760	-0.29952043	-0.90820106
253695528	0.95349878	-0.27261681
189720879	-0.60147938	0.73799024
328840217	-0.37567641	-0.29347935
257942088	-0.24387459	0.87246114
468107093	0.93354057	0.19980442
442065499	0.90016372	0.4161756
481937746	-0.85367177	-0.4759786
249568322	-0.78262655	0.58378939
249133358	0.66659487	-0.71865134
522416794	-0.42091273	0.90012796
254831308	-0.10051943	-0.68432158
342949589	-0.96953961	0.17794394
209294398	-0.02147794	0.02878705
468206713	-0.88912484	0.40134159
192626582	0.33743353	0.17625142
235582721	0.93134718	-0.31031861
522419894	-0.82309884	-0.52134096
444988997	-0.44663189	-0.66605181
257194104	0.94191987	-0.32103679
189720815	-0.87538972	0.39223412
192626586	-0.61624934	0.74697815
235582667	0.9167276	0.11838215
257193757	-0.84655398	0.51915242
253042259	-0.12685587	0.98659048
253057840	0.83706087	0.49924326
253221404	-0.92159638	0.26993033
261849761	-0.82752451	-0.4698516
249672413	-0.37014756	-0.10975598
425118156	0.71710992	0.68570454
189967567	-0.18771074	0.74232584
463662576	-0.97997958	-0.12945274
253046885	-0.43005067	-0.34452124
190195237	-0.80167913	0.57924044
189967539	-0.06642063	0.37394027
259399228	-0.60778672	-0.76650076
252578419	0.17418946	-0.91900232
481937904	-0.8013534	-0.50141602
253233751	-0.22886508	-0.91192173
209895086	0.58499692	0.80217704
253692555	-0.09839649	-0.79122903
170590711	0.09331898	0.98945339
250235357	0.94779178	0.09185671
248827288	-0.54349974	0.81395626
189721029	-0.46549083	-0.81453489
210639318	0.67634777	0.66921215
258636752	-0.26076849	-0.73961707
264266051	-0.29947982	-0.77637029
253227771	-0.69621126	-0.70256675
253439107	0.12867826	0.72661773
252578556	0.16533113	-0.90194201
257942203	-0.28942781	0.93150329
191900551	-0.65997132	0.69631163
190293628	0.62475093	0.76002552
328840233	-0.304756	-0.79635892
253221328	0.99793055	-0.01837252
256239251	0.28995348	0.61366952
468107043	-0.21551544	-0.61672352
235581439	0.86062845	0.24609067
250235285	0.88308774	0.43075483
342949516	-0.25066908	0.95771891
253056320	0.73804427	-0.21984253
253063831	-0.42220479	0.65045129
249133429	0.91863948	-0.37475818
253226420	0.25149464	0.94774262
392307279	0.89240553	0.330394
258636801	-0.20731402	-0.95147388
189723297	0.67664844	0.5777326
192626148	-0.2585017	-0.93688291
250232292	0.00694398	-0.51649183
253233515	0.43161598	-0.87201908
257944377	-0.55123465	0.72511209
189721263	-0.17458021	0.89712391
253475868	0.67406421	0.47561724
210628041	0.39755822	0.86539888
392307265	0.924273	0.35787744
522419898	0.84108848	-0.46482459
257944365	-0.51543976	0.66612849
258638279	-0.22161348	-0.95601241
190293625	-0.77246888	0.61684633
193879353	0.64444759	-0.75141176
342949514	-0.24307867	0.94210482
253540324	0.94007736	0.31494227
472536567	0.03746489	-0.39070513
249133306	0.80687771	0.48087092
279598331	-0.95643566	-0.24319201
210638734	0.01646625	-0.92418794
488087519	0.89836061	0.41690264
253237077	0.33310478	0.93574226
253227537	-0.23257565	-0.72700728
248833268	-0.3654064	-0.89470158
253476058	-0.90705834	0.40572803
210639320	0.6795659	0.64951533
256238759	-0.22975852	-0.91457549
263127052	0.53463729	-0.64967926
235578601	0.16837363	0.96854111
252578061	-0.25425948	-0.67746484
249133373	-0.11107929	-0.8881373
248827202	-0.57950672	0.79877647
279598358	-0.81119853	-0.47751162
253047073	0.14749835	0.36380105
253233746	-0.22290643	-0.90052163
253645179	0.57920185	-0.77155285
189721016	-0.45295047	-0.79869078
248827186	-0.72590976	0.64832288
192553653	-0.1319176	-0.62699106
250235177	0.9768885	0.04845902
249523402	-0.42338201	0.89867078
253046547	0.09039173	-0.03577271
210639275	-0.2505574	0.956279
249523694	-0.83114087	-0.52361785
253539084	0.13694174	-0.97099053
249672052	-0.16897863	-0.86700899
190195336	-0.23997433	0.91004643
481238615	-0.12771396	-0.90337961
253539043	-0.38119339	-0.73440985
248827121	-0.66160525	0.74165764
210633420	0.58275246	0.70837131
250235135	0.8297446	-0.53337011
253221171	0.18042708	0.7293289
257191655	0.65100194	-0.75096159
252578571	0.11821813	-0.87435408
249563548	0.04566117	-0.99154962
481534647	-0.87605255	-0.45480822
253477546	-0.80560547	0.43555021
190195186	0.55756097	0.77035578
253045754	0.04482634	0.00107344
257945870	-0.40489384	-0.77175396
253045748	0.04621527	-0.00745623
249564333	-0.73115297	0.67149861
253045638	0.02202516	0.02914501
250235322	0.83472495	-0.35960368
192557311	0.70413229	0.58441051
253226431	0.23542793	0.9462744
186201341	-0.65478923	-0.73759677
481937687	-0.81667438	-0.50055578
250235156	0.87596673	-0.43796586
250233064	-0.21098506	-0.96202636
250235289	0.96327338	-0.03241352
279598457	-0.86303905	-0.49011254
253226400	0.16658409	0.78492597
253033933	0.27247321	0.95530584
253237994	0.15833117	-0.9326221
256995476	0.97543025	-0.19191974
249566509	-0.68475365	0.71788413
248827183	-0.73522558	0.64816068
249564403	-0.29896163	-0.94512542
235581450	0.88632593	-0.0208033
250232293	0.00014971332	-0.511807709
190195314	-0.55082481	-0.82006409
425117993	-0.93356449	0.30845922
253692546	-0.01701594	-0.78004519
192554562	0.22502118	0.3842172
210628517	0.95635251	0.23397649
257942206	-0.1735862	0.96197132
268451927	0.70072121	-0.2054645
253233512	0.41818085	-0.85246612
250231287	-0.67417067	-0.70916389
235582608	0.82879206	0.54661171
210639924	0.76359721	-0.63944969
257939385	-0.95021624	-0.13817142
249568334	-0.91562566	0.38256063
189720875	-0.68616485	0.69857137
253140892	-0.07731582	0.94582853
250235131	0.88328719	-0.44232265
249568299	-0.85621094	0.33146612
189721053	-0.14893847	-0.62794074
253057629	0.25011006	0.18130058
249602381	-0.77832206	0.59939954
253237369	0.45019414	0.81353781
257944352	0.9000174	0.41593188
250235313	0.82136437	-0.3894098
189720854	-0.91989886	0.36127858
484995553	-0.02319138	0.99176931
253209691	-0.16635294	-0.96388469
330505460	-0.73939174	-0.64873036
250235241	0.71143355	-0.19731234
250235248	0.58562382	0.80019113
209895082	-0.49792893	0.18655857
253046459	-0.47703611	-0.83101358
522426733	0.7180873	0.41012374
190195322	0.58562387	0.8005828
253475884	-0.96049531	0.26409682
253236250	-0.95559673	0.27225018
249672515	-0.59725368	-0.73806068
190293626	0.71032219	0.40378584
441227912	0.89448132	0.42462256
253540297	0.87225484	0.0585898
249564558	-0.81266697	0.24949207
392307264	0.89443664	0.28830248
491959273	-0.6568813	0.6816265
189720913	-0.82778505	-0.5263641
261848840	-0.93176637	-0.24586367
191544515	0.92842189	-0.24341656
253063696	-0.09181338	-0.91186902
250235129	0.83186302	-0.52766421
253692564	-0.02442919	-0.7707628
249563491	-0.23947429	-0.96470158
522425931	0.62025014	0.76724017
189706462	-0.6144235	0.69514239
252907380	-0.68504714	-0.71363027
522426781	0.90893639	0.36997573
253478765	-0.2854722	0.9347221
235578603	0.17845161	0.96089686
249133455	0.38711492	-0.82493921
261848620	-0.92920763	-0.30097756
257945929	-0.76109497	0.58836539
252577968	-0.4795178	-0.85785709
253209665	-0.47391331	-0.82752611
253439142	0.16861054	0.70903353
190195145	0.60678654	0.78091606
189986518	0.93968462	-0.32027308
257778555	-0.80707722	-0.57417003
192553644	-0.10551767	-0.87783126
209294396	-0.03425777	-0.03606495
189721081	-0.46441995	-0.81440583
253226401	0.15407415	0.72261896
253045553	-0.43464682	-0.89040682
425118036	0.28205489	0.11643298
249564134	-0.68085294	-0.70565067
209895195	0.08991826	0.90732173
263126899	-0.17627851	-0.6695286
253057939	0.72517351	0.64416733
522420000	-0.14035352	-0.65831246
249523321	0.18656982	0.97417167
252912506	-0.69318524	-0.48768365
261849766	-0.80847368	-0.48372309
209895085	-0.54843474	0.16723863
264266232	0.0315409	0.02775155
263126910	-0.20383669	-0.96897725
189720758	-0.73353281	0.6442861
253539048	-0.1133402	-0.89610781
253539044	-0.48138506	-0.80102976
189610651	0.49128927	-0.81391064
253034201	-0.27605907	-0.9458993
253139925	0.54600836	-0.70104807
253692563	-0.01734714	-0.78093634
253136826	-0.185258	0.95597161
249563193	-0.58742826	0.70082871
491959299	-0.92011604	0.36112488
192554619	-0.62551786	-0.27753816
249568308	-0.81184445	0.26642175
252578050	-0.15968239	-0.62313129
261849763	-0.82777344	-0.48784368
253442159	-0.0737563	0.07559686
253226067	0.11911957	0.9248089
257945923	-0.76604091	0.58521754
189610654	0.53349251	-0.7797314
192621127	0.09470006	0.03190258
253439243	-0.03457429	0.83136908
253209666	-0.49481572	-0.83114584
472535667	-0.56710551	-0.81435139
488082937	0.98219354	-0.06673373
210630257	0.34209749	0.74247205
209895212	0.35574855	0.90493268
249523356	-0.77511569	-0.61711791
249568330	-0.77474736	-0.61630971
253042662	-0.51784967	0.80014203
249133400	-0.43285862	-0.88388934
270700884	-0.56953789	-0.80894391
259401255	0.03796111	-0.00712615
250235284	0.93498983	-0.01792849
270700894	-0.94350619	-0.25180228
472536568	0.09770228	-0.4655992
235581824	0.74262964	0.10695366
252912349	0.56560056	-0.73242691
264266053	-0.16369128	-0.63864976
253046519	-0.45368217	-0.8292697
249862005	-0.53808953	0.83611666
249563190	0.1499435	0.69728459
329186329	-0.59288229	0.69154998
189720846	-0.93346961	0.33844193
329186283	-0.50636761	0.76465226
514009041	0.40807774	-0.82941653
189610635	0.52262077	-0.77651849
253047118	-0.18238961	0.64976837
258638280	-0.25664442	-0.9324127
209895036	0.31711119	0.12718455
342949557	0.1554617	0.32781071
249563866	-0.41850079	0.65814661
253227657	-0.07643315	-0.99225673
252578101	0.15005086	-0.85874808
253221381	0.75666101	0.60635205
488079433	-0.16201303	-0.96488073
253692542	-0.0493495	-0.76675557
252578430	0.17027371	-0.90080597
189720883	-0.61260631	0.69341801
257946310	-0.94413912	-0.18974108
209895097	-0.62331803	-0.76451537
250235325	0.81192007	-0.36183711
253226116	0.12154276	0.87678659
442065485	-0.63420469	-0.75381751
253134729	-0.43830051	-0.73418184
253045760	0.08433072	-0.03833183
253476285	-0.9127568	0.38544816
253541279	-0.75257365	-0.32424124
253538934	-0.22601422	-0.91257044
249133317	0.08283658	-0.97110296
189720864	0.01000239	0.20437223
329186299	-0.5232242	0.67751074
193879378	0.37792893	0.1537063
253214119	0.32277442	-0.93144363
249568315	-0.91933198	0.34645409
209895288	-0.05190525	0.85296149
253046096	-0.62086977	0.77263457
253692593	-0.70889689	-0.64545372
189721314	-0.99076024	-0.05637377
430674715	0.40174876	0.89901548
189723285	0.68007525	0.66960204
192554616	-0.08104428	-0.11235944
250232248	-0.39025089	-0.89381236
252578416	0.18950138	-0.84016527
248833270	-0.11039811	-0.95597856
262491683	-0.02453262	0.99339425
210634942	0.78978298	0.60023668
253227352	-0.95387062	0.27265378
248828035	0.95118758	0.19820719
328840171	-0.11430331	-0.63497413
249133385	-0.13718466	-0.90679715
210636148	0.43026585	0.88928406
253439826	0.22294669	0.89480623
250232334	-0.23424094	-0.95813121
249523755	-0.55377116	0.81425093
192557281	0.75535442	-0.63876259
253041137	0.2733295	0.95532569
170589412	-0.75042785	0.44347234
253692592	-0.72716353	-0.63664195
253046867	-0.08434421	0.94560472
249563665	0.4194458	0.68762099
192554610	-0.44943581	-0.33900137
249566705	-0.83072517	-0.52322161
189721095	-0.23649997	-0.61574236
253697799	0.10403123	-0.40799199
253238034	-0.6582066	-0.72813282
170589422	0.02563029	-0.98985476
190302558	0.15317126	0.3513364
249677791	-0.6669262	0.72766306
257941250	-0.69292845	-0.51011063
210628519	0.90187575	0.14688564
249672032	0.14229066	-0.97336168
249677786	-0.70818572	-0.6239775
249568333	-0.79617194	0.538194
249133404	-0.40878059	-0.13742989
189720791	0.54291171	0.81425262
192626585	0.28548757	0.14784886
189721293	0.75067181	-0.54711052
253230391	0.58236788	-0.69103852
192557316	-0.07949993	0.98613676
256238764	-0.22176812	-0.92807863
487940060	-0.66234648	0.72270032
210634939	0.16774979	0.96682834
248827219	-0.50821281	0.84203124
209895089	-0.61329171	0.11727201
249133381	-0.07541469	-0.91359845
488082941	0.94958384	-0.06247735
253644878	-0.05224469	0.9900413
253063701	0.30721031	-0.89580965
252578555	0.09160539	-0.95601283
253046687	-0.12494854	0.6334401
210633467	0.56093605	0.7105216
189352198	0.91493786	0.38179442
249566472	-0.39443988	0.91066975
189352175	0.59651693	-0.4729111
192551432	-0.04943795	-0.3966561
190195218	0.837562	-0.47131611
210639352	-0.20627435	-0.63960499
261849767	-0.81912711	-0.49795984
249672445	0.25560764	0.55800138
488077378	0.77205629	-0.40677819
522425665	0.61227253	0.7764868
235581795	0.96513331	0.22703351
252577678	0.33339273	-0.74958378
192557728	-0.21496216	0.31190816
360769453	-0.32539665	0.92216466
192554623	-0.077546	0.38359864
360769455	-0.18550724	0.96872796
253045757	-0.01095992	0.01022376
253233513	0.41250889	-0.84847942
253696204	0.81771901	0.54906944
253221169	0.36756672	0.14147043
209895093	-0.63241001	-0.75026674
189457051	0.68272105	0.50790651
253652498	0.58851829	-0.79318351
425118039	0.64287477	-0.53963005
270700890	-0.93176056	-0.26059528
190195278	0.50548993	-0.85285477
481937893	-0.78284007	-0.570805
253209968	-0.24885935	-0.73281053
257778731	0.82912641	-0.27474552
253214305	0.73361481	-0.22241736
189720770	-0.45486862	0.87980347
190195316	-0.77433231	-0.61592622
235284310	0.57953078	0.66662584
249133447	0.37363454	-0.83771097
190195170	-0.65801856	0.70704093
249564559	0.04208016	0.9901561
261849764	-0.81911737	-0.48654699
253233621	0.15389937	-0.9510774
253233489	-0.09897438	-0.90538282
522419861	-0.7753658	-0.5840713
253439175	0.15009547	0.79464629
189720887	-0.35923564	0.74744132
253539074	-0.08913928	-0.89348417
253230695	-0.43770437	-0.87422528
257947589	0.33139526	0.1857531
252578533	0.14882484	-0.94024536
257947287	-0.09962035	-0.01738834
253047165	0.6943713	0.5765221
190293649	-0.24638385	-0.63979534
190195147	-0.95315104	0.18650145
189721025	-0.48359416	-0.68224813
252578060	-0.23336071	-0.61030387
270700891	-0.93394382	-0.26154186
481937864	-0.94308742	-0.25510786
250233095	-0.21063816	-0.94194466
250235291	0.98326183	-0.05553087
256239341	0.34092238	0.61247355
249672024	0.68713169	-0.62944514
481937678	-0.80503621	-0.57086223
189721089	-0.47994682	-0.70657235
190195344	0.78057217	-0.5900852
522426855	-0.9825624	0.09401206
421670126	-0.05983555	0.00157584
249563855	-0.97847444	0.08562719
209895369	0.17985287	0.96532081
261849768	-0.80154352	-0.50734646
425118042	-0.98070927	-0.12947755
257944341	0.11081505	-0.88856272
189720889	-0.66251215	0.71071769
258636773	-0.6669853	-0.65214773
253226398	0.1352851	0.70030654
253692558	-0.02857322	-0.8020773
209895084	-0.58760578	0.12679402
253237998	-0.10921335	-0.89407656
189721034	0.62244551	-0.05084447
250232955	-0.22278272	-0.904932
252925080	0.02902771	0.23615409
257859413	-0.21172775	0.96651252
257778732	-0.82740473	-0.52477603
470823499	-0.7408453	0.42795774
488077424	0.75880571	-0.15537071
358848581	-0.25729798	0.85052075
253440200	0.15221214	0.73246647
473860078	0.01187182	0.01774445
250235111	0.87832395	-0.44026814
253056318	0.84873042	-0.46797237
190195146	0.61889221	0.77771692
190195209	0.84931118	-0.47033468
253233511	0.43611595	-0.8561947
189720825	-0.89122685	0.41064719
253046382	-0.36625114	-0.89850083
192621499	-0.84987947	0.19425841
472011012	-0.56762486	-0.81098358
257778545	-0.80940359	-0.49965301
252578607	0.15598269	-0.86098163
252578699	0.07104018	-0.9311881
488078383	0.64832743	0.74402571
250235202	-0.56935183	0.79610306
249677841	-0.09463482	0.81289916
252578423	0.08689204	-0.87700694
270700893	-0.95101719	-0.24586879
484998662	-0.13962335	-0.86198799
189986512	0.93003447	-0.28761099
481937812	-0.81464505	-0.49190456
184828950	-0.19181673	-0.58325735
189721140	0.02073286	-0.04676423
250235250	0.58974042	0.79303988
253040745	0.69929447	0.6958109
472542575	-0.09661378	-0.96668593
210639579	-0.19011493	-0.70116264
253697195	-0.54364755	0.81930972
192626584	0.58143865	0.21050166
192554607	0.04762213	0.2097084
253046991	0.15788347	0.29838645
256239265	0.32313887	0.61383101
193879396	-0.0945382	-0.02007628
261848824	0.74378238	-0.13252008
522425131	-0.42802965	0.69255923
249523640	-0.85508336	0.50579687
191884344	-0.58755137	-0.79801272
249671976	0.3383045	-0.75284508
209895300	-0.02906755	0.87169564
256997131	0.13368525	-0.97514674
253478686	-0.90191214	0.397869
522419963	-0.24069258	-0.59402982
481014150	0.96968307	0.20602073
253645156	0.58615337	-0.79516349
250231312	-0.72327657	-0.65069844
488042989	0.1351123	0.71224608
249564514	-0.2091205	-0.92679026
484993981	-0.94047767	-0.27110874
342949512	-0.16022577	0.96747852
360854886	-0.12893616	-0.64935245
253439089	0.16600177	0.71232825
190195302	0.4265069	-0.89442301
259401318	0.00472724	-0.01383384
253206562	0.17893803	-0.90292927
210636322	-0.25634573	0.88004943
249672068	-0.19141612	-0.71875573
210630457	0.37518716	0.91776476
420310260	-0.26309064	-0.60671777
189610625	0.53005403	-0.79251662
250233076	-0.33443277	-0.9016817
252589012	-0.49655381	0.85638184
249523330	-0.40870939	0.87685993
256239254	0.27057421	0.63136759
257942131	-0.33550753	0.9302407
253226072	0.10033152	0.88350523
250235064	0.89948561	0.40341315
252578098	0.11627451	-0.85935963
484997848	0.49541052	-0.85730647
253645185	0.55843458	-0.78601101
253238201	-0.36778393	-0.68695709
250235138	0.85041985	-0.47429142
481937785	-0.86144357	-0.47561597
253225709	0.07347454	0.94927546
257778542	-0.81959074	-0.49689365
189610647	-0.06516366	-0.75432593
328555906	-0.00432312	-0.01644721
249566586	-0.65503352	0.73090873
248827285	-0.55844061	0.82143239
253233753	-0.23418603	-0.91819593
250235287	0.94767315	0.00876392
249568319	-0.78768302	0.60429923
190293631	0.62566361	0.76410975
190195307	-0.67898076	0.663736
257946286	-0.06595378	0.39497398
210638310	-0.97248445	-0.09912757
252914295	-0.89811194	-0.36018032
186204055	0.90954061	-0.30821682
252578545	0.09336092	-0.94366175
342949543	-0.27955322	0.90072967
250235127	0.83064129	-0.53659436
522426136	0.19709887	0.72491745
249568293	-0.73776656	0.41241939
481937832	-0.863423	-0.46699324
253047158	0.22831051	0.91952562
250235362	0.78114828	-0.41253826
192554564	0.44604644	0.8755047
253221217	0.21809078	0.90268758
252578615	0.14394205	-0.93641261
257938851	-0.97014796	0.0977537
253233754	-0.2154923	-0.94169095
472535670	-0.56688353	-0.8162812
252912510	-0.71226786	-0.50630095
249566476	-0.67194426	0.71969306
442065523	-0.63049138	0.08925307
522425775	0.94392309	-0.03615386
250235215	0.98994095	-0.0748082
258638274	-0.21853228	-0.96021846
258636778	-0.68667752	-0.68142162
481937738	-0.8179449	-0.49613663
257945925	-0.76031183	0.58356999
442065496	-0.68556813	-0.65910473
279598337	-0.87345438	-0.46139039
249672438	-0.58467651	-0.74588749
487718870	-0.20771643	-0.9237873
250235334	0.89608154	-0.20308853
189721087	-0.52692277	-0.83297098
253232926	-0.23325985	-0.58114963
210639344	-0.19555893	-0.68957235
252925068	0.04209184	0.99012272
235648053	0.89765719	-0.32133106
253047097	0.15535269	0.34602165
190195160	-0.55306019	0.81324205
250235355	0.84152986	-0.36553763
481937731	-0.93343248	-0.26084742
253057655	0.36476696	0.13001791
250235294	0.9609697	-0.05790035
253209483	-0.73518132	-0.64354067
270700895	-0.94600096	-0.25522535
235582588	0.90196678	-0.13531955
190195191	0.95062566	0.10398305
259401247	0.69812806	0.69456966
249563764	-0.78991381	0.26728536
263127064	-0.13774204	-0.83479058
253238245	-0.44150065	-0.42084765
481937910	-0.92221877	-0.2790687
209895087	-0.67809769	0.11853038
256239311	0.32833215	0.65331864
253226078	-0.03440544	0.79980378
256239175	0.27743398	0.61811777
249568326	-0.85319558	0.47181156
170589424	-0.40220864	-0.82854508
261848836	-0.81601089	-0.54375527
253692567	-0.04352413	-0.76077778
249677789	-0.41304909	0.89271173
481937602	-0.06853066	0.56060234
209895153	0.11268332	0.89696797
249568289	-0.73786065	0.39753946
258636777	-0.70272321	-0.67473214
249672049	-0.10683907	-0.8891513
481937905	-0.81195231	-0.49736706
253696540	0.83645565	-0.50135451
257937108	0.77472609	-0.54934838
250232259	-0.11120632	-0.9726543
170590721	0.91781207	-0.33623888
192557253	-0.15118451	-0.6030278
250233022	-0.24133741	-0.9478623
252578160	0.26065469	-0.83211804
329186314	-0.56552036	0.69488961
249523718	-0.42875498	0.87756307
189721085	-0.36319076	-0.82211854
250235311	0.84826118	-0.37167556
481937709	-0.879966	-0.45601038
484993975	-0.87364951	-0.44055749
257197098	0.14061297	-0.97018271
250235342	0.87535278	-0.36574534
190195225	0.8180708	-0.47109862
252737325	-0.92485056	-0.34451465
268452003	-0.26392088	0.84380589
192621429	-0.06394364	0.34498743
253477423	-0.88203083	0.42085238
253045758	0.03483858	0.04700459
249564312	0.66877549	-0.57335666
249672516	-0.58348067	-0.78524521
481937661	-0.85996069	-0.47634067
250235360	0.86643066	-0.36801394
250235312	0.83714004	-0.3809715
484996360	0.92648939	-0.3089715
249671999	-0.13266924	0.26259988
253687958	0.70721176	0.0479553
270700892	-0.94877753	-0.22886571
253441148	0.70544963	0.51783633
257778544	-0.95304333	-0.23504698
210639391	0.81705227	-0.36957581
257942061	-0.18023332	0.96317023
249523397	-0.42115661	0.8885222
253476931	-0.90994051	0.3547127
252578407	0.12108137	-0.94115282
253476046	-0.76035353	0.6155461
252577903	0.8397658	-0.39219854
342949523	-0.78043069	-0.6011023
253440644	0.36791601	0.91958744
189720837	-0.88794908	0.41474051
189720919	-0.32556537	0.92272044
252925081	-0.10844504	0.21576058
235582592	0.91060669	-0.05278379
279598456	-0.85869239	-0.47997797
481937773	-0.81663645	-0.56415938
189734190	0.58803057	-0.47614832
249563806	-0.81818581	0.27447733
250235251	0.76325227	-0.48548935
484993831	-0.86131988	-0.44975181
522419957	-0.8390586	-0.47359878
252588710	-0.49045149	0.80628261
249568332	-0.93343175	0.33842479
253136828	-0.78716176	0.57634411
484993871	-0.85347356	-0.49429292
190195203	0.95591025	-0.02004328
250235265	0.91351152	-0.31145461
261849771	-0.8102187	-0.49383999
442065507	-0.85924439	0.24479666
249602424	-0.43349379	0.88211512
209895078	-0.61654776	0.1562436
250235191	0.96347351	-0.10003029
249523398	-0.41037709	0.90199643
481937758	-0.83379503	-0.50365317
250235238	0.68884268	-0.22316595
257947270	-0.00385388	0.00272727
253213744	0.6673545	-0.71899231
253057627	0.31684925	0.17301359
257948237	-0.06133586	0.07082674
190195169	0.05092272	0.56403181
257947224	-0.91331965	-0.32505178
257945927	-0.76450861	0.58561914
250235243	0.87787299	0.35011014
250235178	0.79766546	-0.16617836
253057696	0.30469149	0.16040348
249464069	-0.2107667	-0.58762779
235648063	0.93565976	-0.29806384
